{"Coords":[1,2,13,2],"Dir":2,"Fitness":257,"Food":4,"Name":[1,5,"MyAnt"],"biases":[1,2,[1,10,0.003381593234962613,0.120213261528161,-3.468337870934877e-05,0.02632829068150575,0.000670466202241278,-0.3659936909419871,-0.0001945575811568743,0.8242674805608829,-0.05860576532457508,-0.004757479975103632],[1,2,-0.06253693452195187,-0.4662330888679191]],"error_threshold":0.001,"learning_rate":0.5,"training_iterations":1000,"weights":[1,2,[2,27,10,-1,0.5211392986730893,0.4190241515189632,0.06205591857174188,-0.03879415436829357,-0.06724284640467679,0.2644697109670722,-0.209645087968024,-0.11376204474749,-0.0004711295708053649,0.3904935011039302,-0.02337698436912177,-0.2430034906825445,-0.03059795913288402,0.04200535475430866,-0.0001363466604520249,-0.04539129592258256,0.02620010726342837,-0.5167377743669922,0.04757412252735162,-0.4753554830507906,-0.5459091361971266,0.4887650496533377,-0.05535567358680323,-0.2228359709007577,-0.0006628194846672425,0.8037936262012586,-0.09609585615187051,0.7191111758856382,-0.002309117462210784,0.02876212888163907,-0.001432843464959794,-0.4067248123499394,-0.06407881587258267,-0.6051181092829081,0.0003368789089080332,-0.03875609516162074,0.0621135061588407,-0.1193278532498236,-0.08051326569163929,-0.02038517820929288,-0.04677881800225241,-0.3213143102150402,-0.001420903392301613,-0.2015166099733513,-0.0003833575837681755,-0.004982680700319536,-0.009832568313864044,-0.06114135755028621,0.7854047653188756,0.005760894802349815,-0.008357770787954176,0.0519033708489017,-0.6833991373808828,0.002356284380190177,-0.1031798798142958,0.4397391572870976,-7.281331884658475e-05,-1,-0.003023385586428501,-0.02953697875914445,0.0003966499643357461,-0.02782278412433584,0.008491918221902418,-0.01074490998043545,0.03352754373077187,-0.004314472729301897,0.5264317452408315,1,0.01723328667143722,-0.7429708869112025,-0.005440544691433582,0.03593376776580936,-0.1771370224327746,0.001162903734178226,-0.7452474779924505,0.02482789567785073,0.08347764330085683,0.3823808556889671,-1,0.001155079867012843,-0.01085821001792862,0.0006463618083835715,-0.003031191920278658,0.9655456486062076,-0.1263630890661857,-0.2321602722959622,0.2631383751490527,1,0.009640569596467842,0.1277570533939701,0.02696940030189619,-0.002823468857070302,-0.6445449594392557,-0.1041593525375681,0.006674336032916161,-0.2510764153269673,-0.5747509265183969,-0.01659332401095828,-0.01119668945179099,0.0001002323242822024,0.04128775986281479,0.02165215994296512,-0.5592715399075211,-1,-1,-0.1647245174150096,-0.01982112756484668,0.3917853944576793,7.217783193881117e-06,-0.05722790893368107,0.2157383333069364,0.1094314846976615,0.1647582914164981,-0.006759949284319657,-0.004896111317516527,-0.001917660224446575,-0.01207590052899113,-0.02430564498567372,-0.03503147693641469,0.1772420122225725,-0.0005848042935697178,-0.08393201183981035,-0.01826461901756632,-0.005185245316709113,1,-0.04663160694244205,-0.001660498719663418,-0.007916817679521902,0.2329058101398575,0.0002089736338718208,-0.2367857847441269,0.1045878933152005,-0.2292945982983513,-0.3767759188976035,-0.0668250479023734,0.01789194236710596,0.3882539965633437,-0.496002631253513,0.03537835398095614,-0.02374786295484281,0.000649037610301235,-0.07730781497984128,0.009779432546902264,-0.006964738578008394,-0.01750123117184553,0.07187205750752443,0.0087433275009874,0.09813559417030743,-0.08191803937091736,-0.4629653064232664,0.00283862035566437,-0.290778502209493,0.01353154046571337,-0.3130364470884661,0.003127160536333335,-0.06703573481218546,-1,-0.8043889966755521,-0.000177591968918097,-0.01852868998113668,-0.5747833311236634,-0.01260757778568615,-0.005898767280749095,0.0004014205634581771,0.02459023906084085,0.2077098085614514,-1,0.004247164378369027,0.00536650242511526,-1.231787189195326e-07,0.1198445498479028,-0.2936190877798828,0.0009497701407587391,0.8077703533987509,0.006277568975362626,-0.003018162855516705,0.04440567684917078,0.0146465571247706,0.07279880545387653,-0.114058995085249,0.09929448706215613,0.04142780728130047,0.02237638860077115,0.006951231231327877,0.007627190654055396,-0.9382801235030639,1,0.005892664759356811,0.0543119809430098,-0.2648429625461132,-0.1607184873966903,-0.03632832592852336,-0.2403033703287268,-0.8078340613068385,0.6588300817420709,-0.07556528932098774,0.0001104905828541678,0.2658939498229392,1,-0.0001906777426068984,-0.01433404894803919,-1,0.008846878413276854,0.009150233999715872,-0.3194990475768025,-0.4631224526611536,0.05358136366171749,0.8450314920341571,0.03649964117602562,-0.6078097350999261,0.0007026944774887669,4.540474954318905e-05,0.01862715296301789,-0.02847943803834736,0.1257555974227355,-0.0001529168491447949,-2.748197682322212e-05,-0.8612910371591871,0.5042056524711838,-1,-0.03838718751748741,0.604501179599559,-0.005756389044942269,0.0005557619978379049,-0.0001562113597098604,0.0008113446148489476,0.04407735926667927,-0.174544750444013,-1.816506375136595e-07,-0.4841334282414262,-0.1434681474057333,-0.4360456589834691,0.104944894553849,-0.2220466135204505,3.799406448353235e-06,0.000293962523061633,-0.07106216994015804,-0.002539909623218894,-0.1335716424853464,0.00804603377261905,-0.001002055996038187,-1,0.582247399425833,0.02389083143894465,1.331869326167751e-05,-0.0007994969898269076,0.8052510241688702,-0.03306831433467181,0.02197313696793549,0.5120540858761187,-0.1247271414820314,-0.02794837827252012,0.7676981349384395,-0.118968404711059,0.0005084647066230195,0.008554546691358992,-0.09811358366837993,-0.1101803213011929,0.01975141839065294,0.1888864253918422,-0.7128288404298462,-0.01667306172501013,-1,-0.4811837908434509,0.01333265756197933,0.0162842695847193,-0.01844552119598234,0.003758393744226067,-0.958454310985577],[2,10,2,0.0007477373878959678,0.878281148800379,-0.01128967329386364,-0.2406752419108488,-0.1302844732728102,-0.0276813715191932,-0.002488456684473507,0.07776528406006285,0.4424747707808186,0.02611934195978834,0.9071710465099039,0.3722529072898912,0.6627029251679504,-0.7881635894209705,-0.004266726032068672,0.3555083055239208,-0.8624696428658765,-0.009449076696011987,-0.6095512503594235,-0.0092000096647053]]}
