[1,15,{"Coords":[1,2,0,0],"Dir":3,"Fitness":10,"Food":0,"Name":[1,5,"MyAnt"],"biases":[1,2,[1,10,0.9135446473277515,-0.3831970340410809,-0.09054908558989472,0.8517504795750239,0.00548302668168188,-0.6625629932491768,0.3707684887657916,0.0001097857704548399,-0.8494694206619509,0.5410508969855428],[1,2,-0.707691621417754,-0.7303644410790311]],"error_threshold":0.001,"learning_rate":0.5,"training_iterations":1000,"weights":[1,2,[2,27,10,0.1260462905375019,-0.8367521554999888,0.103057603800716,0.2679134510920076,-0.6422652868371868,0.3272605911334467,-0.9572103558831897,-0.4355206071667526,0.7882241368812786,0.5177907306972378,0.9490799788771282,0.3735827139135945,0.7542104490991737,-0.1937242505957697,0.5639138227823886,0.0409154527132285,-0.497124307297047,0.9780638518512366,-0.2749177318205105,-0.1569848633612765,0.4418318544703477,0.8990092630272402,-0.8098452146859232,-0.9298826772280921,0.2985749650662048,0.1656771910701675,-0.8456127142505496,0.001122483115955086,0.8924084428637162,-0.002547586777778887,-0.3523759467835783,0.9735877088953362,0.3362572572618052,0.3510336014089515,-0.6415546075326615,-0.8103554984228636,-0.6891449150072064,-0.7448758274861984,-0.4922188081807224,0.08759481784794665,0.7309924698005676,0.8328025133135262,-0.01332468268343834,-0.4972791150257365,0.2564335754651383,-0.4315226898912055,-0.01406201471637547,-0.1050569606462075,0.3023982920379746,0.5630098802160857,0.5593547635846752,-0.5153143901029471,-0.564155198238687,0.6924212933426104,0.8633539560082875,-0.4166580830295217,0.1106348905565755,0.9144068182369656,-0.8688835007096067,-0.09126087624418511,0.8125903216651544,0.9912987164006768,-0.6339587495360421,0.3188868787455548,0.866930895587241,-0.6550357006241845,-0.4582112898644597,-0.2851661616245076,-0.143934876115521,0.7619453826658076,0.5023781387260435,0.2328721049175357,0.9949639125227414,0.3374015869619214,-0.3809281242209772,-0.8593080256590706,-0.3611701217081189,0.0729320365470294,0.680664934914456,0.6363328062190019,-0.9381804058972978,0.1689907426229726,-0.2119763424519878,-0.5402065570500938,0.8977680898037963,-0.2618406850908619,-0.03652497001088562,0.2098302164409944,0.0605318324962798,0.900407728303237,0.9665880139518437,-0.01384401968655946,0.4315907600418643,-0.3493175605949965,0.9550761677047046,0.6204834240564014,0.6200009579362094,-0.3654780714659085,-0.6854577543371241,0.8933274499835047,0.9511078427856507,0.6341852661738374,-0.9928222318183819,0.3149845072440043,0.004476398299328777,0.6802403167970856,-0.4711621583801373,0.4264258724089494,-0.8784126226572264,0.2339452414943695,-0.008808920590185787,0.4098463141638826,-0.2089262936980829,0.1658559744456773,0.5239112781493522,-0.3360722765071935,0.1731057089768131,0.9531552413131952,-0.7828256077181976,0.6533581847680077,0.2946326363429697,-0.5880397342120964,-0.2066164993258972,-0.3209930511742114,0.8087294120959598,-0.5670935755916464,0.7770083861168968,0.1427456519985941,0.5681202255132509,0.6695214604515123,0.1614332589595715,-0.19414409023422,-0.8636337249518704,0.3930679446226886,-0.7668342506315986,0.08616142408880711,-0.1082946679873753,-0.4467125891859609,0.9694712510457653,-0.8705725083785796,0.7739756345407953,-0.1171691088632902,0.9988326812439612,-0.382392384750107,-0.00626524297819997,0.4417326493801508,-0.2737630107146261,-0.2523581677189048,-0.8838773739957311,0.1911609807780434,-0.4126036876953971,0.2800176561804928,-0.6550573699711941,0.3012994058708973,0.6508300233524709,-0.8748650164966734,-0.5952876430440559,-0.5106530053377789,-0.7183324160140871,0.5776647986419265,0.219009487422386,0.4218306454380143,0.5527930284248839,-0.896853005993494,0.05187812949445969,-0.02318378307188618,-0.8571776439599816,0.4370453346897085,-0.7006412778339619,0.3336337992986687,0.2494985874372213,-0.08753949163768637,0.4304167909517604,-0.5415588948171879,0.8167821664002626,-0.391972975362411,-0.7767398750149208,0.2352351554144019,0.4315063395723542,0.3609548837590653,-0.1916674057590162,-0.1672711322275575,0.4666107159718125,0.9451069303363997,-0.2316506362157857,0.3930562528172745,-0.2913220520408559,0.9518719711393688,0.4294607550833602,0.9332365454595644,-0.118263779488524,-0.5592157878932931,-0.7217970704452539,-0.6856286654662773,-0.5685334866720464,0.534484180670763,-0.890016988969254,-0.1662062858400619,-0.8840941683519128,-0.03726302218141941,0.8989608322241061,-0.9492159721185407,-0.07072861461719904,-0.3192679040344586,0.4640629300204069,-0.3923053743812071,0.006591787070615363,0.2911760561154038,0.697711461808556,0.6829059861550746,-0.2381729222276572,-0.8878377067684389,0.09946693798689954,0.991661295201794,-0.05898745143588058,-0.2314449676400179,-0.9358707007772169,0.7509817738215021,-0.08829202705638362,0.6826243520416557,-0.2040312466716092,0.8584290681049154,-0.4260918552698396,-0.5223307404769824,0.9873326225205734,-0.2292306095761922,-0.8942795790696072,0.2338299046547683,0.3378244478515817,0.7244298845344976,-0.3305572816142088,-0.9446303795994322,-0.4117690323258707,-0.0176804477698822,0.8524004470083588,0.7322894168382892,-0.607374597502248,-0.9450498075415459,-0.8297146998311902,0.2500465425364757,-0.7804301224976904,-0.9168134428592059,0.8850954192133431,0.06222405311383716,-0.1021804512221378,-0.5496264794601025,-0.9341058946723908,0.4314820264897035,0.3719568625939493,0.7925438563924805,0.05719179736549207,0.08137976934741276,-0.3257887331845797,-0.8292266848537262,-0.8894397886598726,-0.5749902730455958,-0.7529542667742113,-0.2038706412308053,-0.01997267645617939,-0.812506600100156,-0.602996477285181,0.05482111868584849,0.8089464773223842,0.9932313468021723,0.3456950772297407,-0.5485709041432456,-0.2881010755323035,0.3619729166172394,0.09148108641766339,-0.1404687229968584],[2,10,2,0.5001430599069578,0.5130204079189944,-0.443405960859159,-0.4615690119118521,-0.1433543934085317,-0.2431315397796279,-0.2039145574606118,-0.1604569964463327,0.9000505396928606,-0.6859881149803118,0.07881914434940751,-0.30497637655333,0.7941842637271976,-0.9721202695997688,-0.01923699771093434,0.2611777971081215,0.8991048873969476,0.5334246760682377,0.9810092184597303,0.3182225411752555]]},{"Coords":[1,2,0,0],"Dir":3,"Fitness":41,"Food":0,"Name":[1,5,"MyAnt"],"biases":[1,2,[1,10,1,-0.3831970340410809,0.5490774452597689,0.8517504795750239,-0.007668274294210105,-0.08492122604937341,0.3707684887657916,0.0001776790561894221,0.6117225636452237,-0.9026231452699002],[1,2,0.2163610386132007,-1]],"error_threshold":0.001,"learning_rate":0.5,"training_iterations":1000,"weights":[1,2,[2,27,10,-0.01604015184705855,-0.6995249822117287,0.1452445362349421,-0.1615641956665497,0.4916716097171625,-0.05604937057800496,0.3400387648713488,-0.8134513511443875,0.1275421425433429,0.3915797251582263,1,1,0.9739815620098516,0.3501832786124741,0.3140390636197778,0.0409154527132285,-0.497124307297047,-0.4436632799173131,1,-0.1569848633612765,0.4418318544703477,-0.1446074046415277,0.009735954095503051,-0.002348931812737686,0.002199785176555523,0.782943921506156,-0.8456127142505496,0.001122483115955086,0.8924084428637162,-0.002352865049207782,-0.6839591487159178,1,-0.01871959475700202,-0.12362006084111,0.1059753029344994,0.1091818404012088,-0.5892433937088961,0.09588083169098352,-0.03905023780664232,-0.1699169008582489,-0.2304634972712688,0.4911298127885478,-0.3277261709568003,-0.180427102096734,0.235824405951895,0.2759484662911336,0.4530585122484901,-0.2008719740996111,-0.8811528944561582,-0.169498724437649,-0.2280089106459398,-0.08915343822809013,0.009709117501458258,0.6924212933426104,0.5082640769338604,0.02783029456334583,-0.4488742667738601,-0.5368392254537273,-0.4920357771828361,-0.1416566835857088,0.8125903216651544,0.1581909893659248,0.2856743319444778,-0.1685194676825501,0.866930895587241,0.06861664938188484,-0.8402157865156188,0.3024450292592233,0.1100303070832145,0.1308579273028319,1,0.4231099627565293,1,-0.03747188179999725,-0.05379625890572814,0.5021594829962071,0.5950751252533969,-0.2792595387157768,-0.7381272726788144,0.2778113328861259,-0.7097769688583748,-0.3278554189656061,-0.2119763424519878,0.5447296918791561,0.02998936693307186,-0.2618406850908619,0.1079548532779785,0.4872640065165568,-1,-0.705792340795405,-1,0.03811837081879716,-0.2099101585253724,-0.2747940519845552,-1,-0.2662542789302663,0.9993965908732798,0.560987457265372,-0.6854577543371241,0.4766359827947637,0.9511078427856507,0.2785574438069126,-1,0.1429399344740909,0.2613945626750487,0.3418633245870905,0.8723855343745882,-0.4467150184367191,-1,0.3181568213952206,-0.3384347239644436,-0.5739159233198834,-0.4731092515473427,-0.0422876699082473,1,-0.3360722765071935,-0.5636315085957289,-0.2934007733206823,0.1408855667128032,0.6533581847680077,0.05860831554005216,0.7177406414008577,1,-0.2035240808788145,-0.9308621825145938,-0.2776105324828081,0.7770083861168968,-0.2765959068278129,0.8922189874512492,0.6695214604515123,-0.1222481594506046,-0.19414409023422,-0.8636337249518704,0.04504173921946249,-0.1633341443067379,-0.1715890621748088,0.1623783584318093,1,0.9694712510457653,-0.8705725083785796,-0.1256733246466347,0.8088110178975854,0.4848299254857942,-0.382392384750107,-0.7624758067194706,-0.2834860807254735,-0.2737630107146261,-0.4540383923954778,0.0476656722992621,-0.2757469428322465,0.6921087251846068,0.2800176561804928,-0.4111225893108276,0.08685376891805453,0.8454264145118388,-0.1427362320376344,-0.1565389998962523,-0.5106530053377789,-0.3041763925244106,-0.8143558117546774,-0.009522419383253952,0.5837889232444599,0.5527930284248839,-0.3293768734469962,-0.0006741145717957675,0.02027140149551498,-0.5760852647734833,-0.5073570162872602,0.4654397710537816,0.1630471370104031,0.1177727063564067,0.09374272202854647,0.4304167909517604,-0.2004738069702467,0.8167821664002626,-0.391972975362411,-0.7767398750149208,0.0140237715436713,-1,0.9508827617144783,0.364742107876308,-0.3997918704152102,-0.4134367153706522,-0.3121202925132514,0.3071415479098509,-0.2864391852888857,-0.0004315927062616094,0.9518719711393688,-0.4366483779072587,-0.6134551430459163,0.2830818430475579,-0.5592157878932931,0.4332684246400649,0.6894238532159168,0.21222548123777,-0.006416854742823608,-0.890016988969254,-0.8125215134988421,0.05896818332690189,0.2552751482651126,1,0.04204831449270219,-1,-0.6565092254051762,-0.7205331965033609,-1,0.1980910845103515,0.07105120389922027,1,0.5418940612652543,0.4484478738103475,-0.8878377067684389,1,0.05095357391667913,-0.2003344383864641,-0.2314449676400179,-0.2669218359034032,-0.9404652721035514,0.2471223368961162,0.6336693851107731,0.2884273968169634,0.3695725965498065,0.08939586495999108,0.9046102008248573,0.5743333537944864,0.336257226777777,0.1754186732767558,0.4616643209661959,-0.7327435464725818,0.8228135384317555,0.6486898534639524,-0.9446303795994322,-0.1428510430427722,-0.0468312968304826,-0.1588080524272557,-0.6072875877813879,1,-0.7633973947496654,0.4812332870266856,0.2500465425364757,0.4850842363627972,-1,-0.1109006261992455,-0.05494517950296404,0.14325035212467,-0.5496264794601025,-0.9341058946723908,0.4314820264897035,0.1211536506061924,-1,1,0.027535956042259,0.1654810301288297,-0.7760883836839602,0.3856399861832027,-0.37506374738126,0.03831881107943776,0.4048211013285451,0.01247312708281871,0.04288950344937992,-0.7052260121526157,0.1476553251265455,-1,-0.2888749207649013,-0.0150431456478582,0.1271034431998755,-0.2881010755323035,-0.1536406217551691,0.633798474860509,0.662555604397165],[2,10,2,0.6712512939646603,0.5130204079189944,0.005203491645154729,-1,-0.008189559051793339,0.04339257639469488,-0.1721611145142792,-0.5603894650194163,0.06326463340813912,0.005193940941604394,-0.2230539986357241,-0.4374861945633968,-0.4764966063227749,0.3149484977970052,-0.01430486661667629,-0.06257806209112149,0.1738504346650263,-0.3548649596621626,-1,0.4231580542917751]]},{"Coords":[1,2,0,0],"Dir":3,"Fitness":46,"Food":0,"Name":[1,5,"MyAnt"],"biases":[1,2,[1,10,-1,0.778031812284845,0.6322459426456313,1,-0.007668274294210105,-0.05418465503141638,-0.02548107573771384,0.0001776790561894221,-0.1174464852931939,0.8233765071494856],[1,2,-0.5427985756412669,-1]],"error_threshold":0.001,"learning_rate":0.5,"training_iterations":1000,"weights":[1,2,[2,27,10,-0.01604015184705855,-0.6995249822117287,-0.2761345436185618,0.263359075398687,-0.948571977091085,0.07259595700246119,-0.5745321237640717,1,0.1275421425433429,-0.2323387329003156,1,-0.0209181729130159,0.5584902309715458,0.3501832786124741,0.3140390636197778,-0.003935385622898108,-0.497124307297047,0.5631561158321474,1,-0.2388841593172808,0.4418318544703477,-0.02061248480140542,0.01003990734385966,-0.003781378728739855,0.002199785176555523,0.782943921506156,0.1748467736754363,0.001122483115955086,0.8924084428637162,0.001118130146933766,-0.6839591487159178,1,-0.01871959475700202,0.1447048231110382,-0.1814214444912314,0.05028471833993919,-0.5892433937088961,-0.03930777609521003,-0.03905023780664232,-0.3171892432862519,0.136824118113485,0.4911298127885478,-0.3277261709568003,0.2613435550846914,0.235824405951895,0.0796282057179617,-0.04959801976401935,-0.2008719740996111,-0.8811528944561582,-0.169498724437649,-0.2280089106459398,-0.1469336655004404,-0.01879892852329542,0.5480538030569805,0.5082640769338604,0.02783029456334583,-0.4488742667738601,0.4607369642074454,-0.4920357771828361,-0.1349250875448942,0.8125903216651544,0.1581909893659248,-0.1321023074824844,0.02997457174270823,0.866930895587241,0.06861664938188484,-1,0.3024450292592233,-0.1666810758073043,0.238048905994895,-0.1257487325284915,-0.4026268790846647,1,0.00905854408842398,0.0489938461614025,0.7051518726018438,0.5950751252533969,-0.2792595387157768,-0.7381272726788144,0.2778113328861259,-0.7097769688583748,-0.3278554189656061,-0.2169822628511836,0.5447296918791561,-0.03799178574059236,-0.2618406850908619,0.01276244360790546,0.4872640065165568,1,-0.7160569172645201,1,0.02628027977610687,-0.3953140956943675,-0.2747940519845552,-1,-0.2662542789302663,1,0.560987457265372,-0.9955607286183635,0.1036912165286637,1,0.2785574438069126,-1,-0.09442549136237212,-0.2292049678596132,0.3418633245870905,0.8413886818400886,-0.5280679699726064,0.9185449599267916,-0.1714653070263863,-0.3384347239644436,-0.5739159233198834,0.4369986762021504,-0.0523070163406437,0.9096563798193018,0.5507310188580465,1,-0.2934007733206823,-0.2662857794509342,0.6533581847680077,0.05860831554005216,0.1646914813453878,-0.8247754095053303,0.3415973075104968,-0.9308621825145938,-0.2776105324828081,0.9388362387000069,-0.2765959068278129,-1,0.02020935616722822,0.0007774896475836444,0.2200005051959797,-0.3102093188125177,-0.06259600836433965,-0.1520232268983175,-0.1715890621748088,0.1013061114018287,1,0.8784595154382375,-0.8705725083785796,-0.1256733246466347,0.9317396685795132,0.4848299254857942,-0.382392384750107,-0.7624758067194706,-0.469325959832991,0.1710638958074831,-0.8787453622314118,-0.05569666759621138,-0.2757469428322465,0.06535672391442907,0.5294773285024186,-0.4111225893108276,-0.1348449179805348,0.8454264145118388,-0.1427362320376344,0.1611397970931431,-0.5106530053377789,-0.3041763925244106,-0.3736481637745922,-0.009522419383253952,0.5837889232444599,-1,0.4837163113294358,-0.0006741145717957675,0.01602336498281998,-0.511380602535828,-0.5073570162872602,0.5872441205806347,0.1630471370104031,0.1177727063564067,-0.1732764030073389,0.4304167909517604,-0.2004738069702467,0.7738108627960129,-0.3742343465862442,0.4753608166388507,0.004993348839796083,0.2091810208084524,0.9508827617144783,0.1512175028367018,-0.3997918704152102,-0.4134367153706522,-0.3121202925132514,-0.3453235957891531,-0.2864391852888857,-0.0004315927062616094,1,-0.4366483779072587,-0.7421676438581503,0.2182639843736719,1,0.4332684246400649,0.6894238532159168,0.0898657182172618,0.00324840738632903,0.07438584535404043,-0.04728282411923379,0.004951916305500039,0.4132001772953205,1,-0.02845413422385957,-1,1,0.164990280360798,-0.438661836958659,-0.07089760445621085,0.03167080766276521,-1,-0.5567115763429288,-0.2768150825692355,-1,-1,0.09561269508457414,-0.352941979850856,0.196932757471498,-0.2669218359034032,-0.9404652721035514,-0.2159518714221073,0.6336693851107731,0.2884273968169634,-0.4815056470312758,-0.12187938210342,-0.4039352944935574,0.5743333537944864,0.3606601313000725,0.1754186732767558,0.3547649689591889,-0.7327435464725818,0.8228135384317555,-0.4507477536081737,-0.9446303795994322,-0.1428510430427722,0.08954292784301941,-0.1588080524272557,-0.3664729667512904,-1,-0.7633973947496654,-0.5516836659967929,0.2500465425364757,1,0.5963402761733642,-0.1109006261992455,-0.05494517950296404,0.04036832912527336,-0.5496264794601025,-0.9341058946723908,-0.2531113428331292,0.1715720072385044,-1,1,0.027535956042259,0.06275427793073128,-0.7760883836839602,0.4124434383349355,0.0005463873206379663,0.01968109863594237,0.4048211013285451,0.01528444781463022,0.04288950344937992,0.2024868366046165,0.1857670292371103,-1,-0.2888749207649013,-0.01663866602585608,0.00587863216454022,-0.06110833996047047,-0.2939168680453345,-1,0.662555604397165],[2,10,2,0.6712512939646603,-0.06256906295242046,0.002527586636439442,-1,-0.008189559051793339,0.04339257639469488,-0.1721611145142792,-0.7269140486733657,0.06326463340813912,0.005193940941604394,-0.2230539986357241,0.6120510064492432,-0.2687634574260237,-0.4428732653322752,0.003124356747717764,-0.002787125121015165,0.1738504346650263,-0.3548649596621626,1,0.4231580542917751]]},{"Coords":[1,2,0,0],"Dir":3,"Fitness":64,"Food":0,"Name":[1,5,"MyAnt"],"biases":[1,2,[1,10,-1,-0.3695402020623109,0.6322459426456313,0.4591115982171927,-0.004613819840977511,0.0821842389809929,-0.02548107573771384,7.687000238551053e-05,-0.1174464852931939,0.8233765071494856],[1,2,-0.5427985756412669,-1]],"error_threshold":0.001,"learning_rate":0.5,"training_iterations":1000,"weights":[1,2,[2,27,10,-0.01604015184705855,-0.6995249822117287,0.06598746092334996,0.263359075398687,0.4351063377178356,0.07259595700246119,-0.5745321237640717,1,-0.2106222214990454,-0.003029833830175154,1,-0.0209181729130159,0.1654812169951934,0.3501832786124741,0.3140390636197778,-0.003006006595699388,-0.497124307297047,-0.1646285601385972,1,-0.2388841593172808,-0.3821306050549145,-0.02061248480140542,0.005471596922036091,-0.003781378728739855,0.002199785176555523,0.6198349805184423,0.0530546644132362,0.0004491117043979274,-1,0.001118130146933766,-0.6839591487159178,1,-0.01739037579408892,0.1447048231110382,-0.03143276094378432,0.05028471833993919,1,-0.03930777609521003,-0.03905023780664232,-0.3171892432862519,0.02512937989535112,0.4911298127885478,-0.3277261709568003,0.2613435550846914,-0.1905411721929584,0.1372671491734557,-0.04959801976401935,-0.271235277259369,-1,-0.02207064866316136,-0.1461805584821668,-0.1567927761868819,-0.01879892852329542,0.5480538030569805,0.2614510885359176,0.02783029456334583,-0.4488742667738601,-0.4275725258551684,-0.4920357771828361,-0.1883280804545028,0.8125903216651544,0.2868930702167048,-0.1321023074824844,0.02997457174270823,1,0.06861664938188484,0.426407328315467,0.3024450292592233,0.2885515149263684,-0.1984560352935984,-0.1257487325284915,-0.1242843184103154,1,0.0154659306635936,0.05110113289345569,0.7051518726018438,0.3601496419629179,-0.2792595387157768,0.7308132186024696,0.2778113328861259,-0.7097769688583748,-0.3278554189656061,-0.2169822628511836,0.5447296918791561,-0.03799178574059236,-0.2618406850908619,0.03286772734308833,0.4872640065165568,1,-0.7160569172645201,1,0.03069402428740111,-0.3953140956943675,-0.2747940519845552,1,0.2454989537312209,1,0.560987457265372,-1,0.1036912165286637,1,0.2785574438069126,-1,0.06015552220210283,0.1152573974439493,0.3418633245870905,0.8413886818400886,-0.0749662631609825,-0.9312004983885698,0.3290924394236904,0.03968543325074964,-0.5739159233198834,-0.8890568005922664,-0.0523070163406437,0.9096563798193018,0.3275861021931876,0.747167000130458,0.3403834783018137,-0.2662857794509342,0.3411577881555766,0.1073731039030952,0.2717851884920658,-0.8247754095053303,0.3415973075104968,-1,-0.2776105324828081,0.9388362387000069,-0.01803164126148884,0.9601857584219018,0.02916478403667789,0.0001999209138644609,-0.3350212819442899,-0.3527162424126652,-0.1107362945767793,-0.1520232268983175,-0.54636669259522,-0.1698284657745303,1,-0.480072766288289,0.7915562436207595,-0.03347781217431293,1,0.9208465037804457,-0.1193243173373931,-0.7624758067194706,0.6447358532360273,0.05478033683894845,-0.8787453622314118,-0.05569666759621138,-0.2757469428322465,0.06535672391442907,0.5294773285024186,-0.4111225893108276,-0.1348449179805348,1,-0.1076731746615276,0.3759730284643047,0.388749966934069,-0.3544304159851474,-0.3736481637745922,-0.009522419383253952,0.5837889232444599,-1,0.1238992027608984,-0.0009484831593278235,0.01602336498281998,-0.511380602535828,0.06281178928891638,0.5872441205806347,0.06728234006830698,0.1177727063564067,-0.04335604393957587,0.4304167909517604,0.3404341724561779,0.7738108627960129,-0.4902088712663124,0.4753608166388507,0.004993348839796083,0.2091810208084524,0.01125845446419115,-0.02363927469359346,0.05645577703859993,0.1451010457408706,-0.3792539940771668,-0.3453235957891531,-0.2864391852888857,0.0004984189497050279,-0.3101113596460998,-0.04234744612067991,-0.7421676438581503,0.2182639843736719,1,-0.8163901500788965,0.6894238532159168,-0.150202666693195,0.00304429035264954,0.06625860904968109,-0.02329635776574093,0.004951916305500039,0.4132001772953205,1,-0.02845413422385957,-1,-1,0.164990280360798,-0.634319132090605,-0.07089760445621085,0.07575129210528071,-1,-0.6661646768852255,-0.0806717515370408,-1,-1,0.09561269508457414,-0.352941979850856,0.196932757471498,0.4317517058374968,-0.9404652721035514,0.1388964486665416,0.6336693851107731,0.2884273968169634,-0.2614088838595702,-0.12187938210342,-0.6894818157043904,0.5743333537944864,0.3606601313000725,0.1754186732767558,0.3547649689591889,-0.7327435464725818,0.8079810732294918,-0.4507477536081737,-0.9446303795994322,-0.1428510430427722,0.08954292784301941,0.01209350219641869,0.02844722592467681,-1,-0.7633973947496654,-0.3278637055051118,-0.3098777143501852,-0.841154955854518,-1,-0.1109006261992455,-0.05494517950296404,0.07257504737719121,-0.5496264794601025,-0.9341058946723908,-0.2531113428331292,0.2599643620405416,-1,1,0.027535956042259,0.1090511805828921,1,0.4124434383349355,0.0002945231118461503,0.01968109863594237,0.4048211013285451,0.003827593446427511,0.04288950344937992,0.2024868366046165,0.1857670292371103,1,-0.2888749207649013,-0.01663866602585608,0.005171908387276628,-0.06110833996047047,-0.07756355316159207,-1,-0.2276910445948411],[2,10,2,0.6712512939646603,-0.06256906295242046,0.0009056208713204642,0.735214083326333,-0.0162880494722719,-0.01628057048269628,-0.1721611145142792,-0.7269140486733657,0.06326463340813912,-0.004579712388422243,-0.2230539986357241,-0.1840789698242436,0.03299755613018585,0.3506873745196217,0.003124356747717764,-0.002413749260052596,-0.2358433880705316,-0.3548649596621626,1,-0.7381088220570887]]},{"Coords":[1,2,0,0],"Dir":3,"Fitness":68,"Food":0,"Name":[1,5,"MyAnt"],"biases":[1,2,[1,10,-0.4344828922510264,-0.3695402020623109,0.6322459426456313,0.1865229768419533,-0.007668274294210105,0.0821842389809929,-0.02548107573771384,7.687000238551053e-05,-0.2331991399781224,-0.3407012251884081],[1,2,-0.5427985756412669,-1]],"error_threshold":0.001,"learning_rate":0.5,"training_iterations":1000,"weights":[1,2,[2,27,10,-0.01604015184705855,-0.6995249822117287,0.06598746092334996,0.263359075398687,-0.5328508643241963,-0.1686243327199304,-0.5745321237640717,-1,-0.2106222214990454,0.002431177836109641,1,-0.0209181729130159,0.1654812169951934,0.3501832786124741,-0.475034174073969,0.00301250643901026,-0.497124307297047,0.5631561158321474,1,-0.2388841593172808,-0.7660934502297831,-0.02061248480140542,0.01287498751661177,-0.003781378728739855,0.002199785176555523,0.782943921506156,0.0530546644132362,-0.001705313068531135,-1,0.001268997102066374,-0.6839591487159178,1,-0.01871959475700202,-0.1469254880591476,-0.1814214444912314,0.05028471833993919,-0.5892433937088961,-0.03930777609521003,-0.03905023780664232,0.1754558555902146,0.02512937989535112,0.4911298127885478,-0.3277261709568003,0.2403501460551979,-0.1905411721929584,0.1372671491734557,-0.04959801976401935,-0.2621460984551423,-1,-0.1054867171642454,-0.1461805584821668,0.2263516888444022,-0.01879892852329542,0.5480538030569805,0.2614510885359176,-0.00916087764685993,-0.4488742667738601,-0.4275725258551684,-0.4920357771828361,-0.1883280804545028,0.8125903216651544,0.2868930702167048,0.1716407388572624,0.04802924981634508,1,0.06861664938188484,-1,0.3024450292592233,0.01453090330830476,-0.1984560352935984,-0.05537617313998826,-0.1242843184103154,1,0.0154659306635936,0.06694534707339385,0.7051518726018438,0.3601496419629179,-0.2792595387157768,0.8762497690503391,0.2778113328861259,-0.7097769688583748,-0.3278554189656061,-0.2169822628511836,0.5447296918791561,0.07316427780283008,-0.2618406850908619,0.03286772734308833,0.4872640065165568,1,-0.7160569172645201,-1,0.03069402428740111,0.001410883255166573,-0.2747940519845552,1,0.2454989537312209,1,0.560987457265372,-1,0.1036912165286637,1,0.2785574438069126,-1,0.03521188211380745,0.1152573974439493,0.3418633245870905,0.8413886818400886,-0.0179586895251313,0.9185449599267916,-0.1714653070263863,-0.104422413811847,-0.5739159233198834,0.2670163002967578,0.08770335797702256,-1,0.3275861021931876,0.747167000130458,0.3403834783018137,-0.2662857794509342,0.3411577881555766,0.1073731039030952,0.2717851884920658,-0.667509670186447,0.3415973075104968,-1,0.3759028712396106,0.9388362387000069,-0.01803164126148884,-1,0.02916478403667789,0.0001913069910837523,-0.6091517837694621,-0.3527162424126652,0.07762361325755614,-0.1520232268983175,0.4581940722421897,0.2087467310301183,-1,-0.480072766288289,0.7915562436207595,-0.03347781217431293,0.1907238496665333,0.9208465037804457,-0.1193243173373931,-0.7624758067194706,0.6447358532360273,0.05478033683894845,-0.8787453622314118,-0.05569666759621138,-0.5312128771749568,0.06535672391442907,0.2524726530030162,-0.353381738752366,0.05722980125604556,1,-0.09716600347616909,0.3759730284643047,0.388749966934069,-0.3544304159851474,-0.3736481637745922,-0.009522419383253952,0.5837889232444599,1,0.1238992027608984,-0.0005939194814621167,0.01602336498281998,0.7405267821093906,0.06281178928891638,0.5872441205806347,0.06728234006830698,0.1177727063564067,-0.04335604393957587,0.4304167909517604,0.5555579791072062,0.7738108627960129,0.3638988039363346,-0.7654367011030588,0.0001486984511724194,0.3508809131158384,0.01125845446419115,-0.02363927469359346,0.05645577703859993,0.1451010457408706,-0.3792539940771668,-0.3453235957891531,-0.2870236476422888,0.0004984189497050279,-0.3101113596460998,0.5678489327174867,-0.8076224523624803,-0.03125147287069576,1,0.8182982838004534,-0.5701310322636701,0.2011435127821645,-0.000468571996240987,-0.05478219390955809,-0.02329635776574093,0.004951916305500039,-0.3773194206611359,0.04061847869557811,-0.02845413422385957,-1,-0.5141332586388949,0.2270377008382252,-0.7848515035120178,-0.09271200378785088,0.07575129210528071,-1,-0.6661646768852255,-0.1067580326962262,0.03982158879965328,-0.3457672079965532,0.09561269508457414,-0.4690791522333402,0.07318636066359459,-0.5254560460083628,-0.5626310808467593,0.1388964486665416,0.6336693851107731,-0.05845672527919653,-0.2614088838595702,0.04150986660191563,-0.6894818157043904,0.5743333537944864,0.3606601313000725,0.32101352568466,0.3547649689591889,-0.7327435464725818,0.1225991235600687,0.5264082658729597,0.3050757080568398,-0.1428510430427722,0.08954292784301941,0.01209350219641869,0.02844722592467681,-1,-0.7633973947496654,0.3488196936666489,-0.3098777143501852,1,-1,0.1926476321700215,-0.05494517950296404,0.111979040486212,-0.5496264794601025,1,0.4699654120508004,0.2599643620405416,0.1480870203679276,1,0.027535956042259,0.0482848116945854,1,0.4124434383349355,0.0002945231118461503,0.01968109863594237,0.4048211013285451,0.01528444781463022,0.04288950344937992,0.2024868366046165,-0.2210771611562702,1,-0.2888749207649013,-0.01663866602585608,0.005171908387276628,-0.04554109950355369,-0.005203655675873163,-1,0.662555604397165],[2,10,2,0.6712512939646603,-0.06256906295242046,0.001265691189335081,0.735214083326333,-0.0109460190922482,-0.01628057048269628,0.1247993345010512,-0.7269140486733657,0.06326463340813912,0.001782457703087928,-0.2230539986357241,-1,0.03299755613018585,-0.6472735795224532,0.003124356747717764,4.61811153381988e-05,-0.2358433880705316,0.06832728349040169,1,-0.7381088220570887]]},{"Coords":[1,2,0,0],"Dir":3,"Fitness":83,"Food":0,"Name":[1,5,"MyAnt"],"biases":[1,2,[1,10,-0.4344828922510264,-0.3695402020623109,0.6322459426456313,0.1865229768419533,0.00298363837733369,-0.129435086466263,-0.005330297783059723,-4.891742666898395e-05,0.4189719688501139,-0.3407012251884081],[1,2,-0.5611616789133328,1]],"error_threshold":0.001,"learning_rate":0.5,"training_iterations":1000,"weights":[1,2,[2,27,10,0.02266297799853604,-0.6995249822117287,0.06598746092334996,-0.4266228424715176,0.6088449271470548,-0.009118011275383874,0.5257488197932975,-1,0.3853590237410297,-0.004236377036279184,1,-0.009971596577623906,0.1654812169951934,0.3501832786124741,-0.475034174073969,0.00301250643901026,-0.8457273804945501,-0.6528688390672486,1,-0.2388841593172808,-0.5823605835289521,0.03351691434046336,0.01287498751661177,-0.003781378728739855,-0.003523377204633082,0.782943921506156,0.0530546644132362,-0.001705313068531135,1,0.001268997102066374,-0.6839591487159178,1,-0.01871959475700202,-0.1469254880591476,0.1683469686662405,-0.04766449110737823,-0.5892433937088961,0.03209814669987419,0.00538521679108624,-0.1378278090465141,0.02157525035575009,0.9556536859119618,-0.3277261709568003,0.08291752423080077,-0.1905411721929584,0.1372671491734557,0.07081224310537516,0.05562445852217952,-1,0.1125239856169336,0.229418599888257,-0.2835375580579796,-0.01879892852329542,0.7164872309292083,-0.1808351182772907,-0.00916087764685993,-0.4488742667738601,-0.1971485929890988,-0.4920357771828361,0.2457364189828934,0.8125903216651544,-0.09277558303599051,0.1716407388572624,0.04802924981634508,1,-0.09159993172038595,-1,0.3024450292592233,0.01724847796748745,-0.1984560352935984,-0.05537617313998826,-0.1242843184103154,-1,0.0154659306635936,-0.1318904294183215,0.7051518726018438,0.3206155989953099,0.2767825787660029,0.2621868417323918,-0.3724007999577984,0.7277463007536106,-0.3278554189656061,-0.2169822628511836,0.5447296918791561,0.07592325236588629,-0.2618406850908619,0.03286772734308833,0.4872640065165568,1,-0.7160569172645201,-1,0.03069402428740111,0.002482893807015197,-0.5406024837573769,1,0.1315905787701324,1,0.560987457265372,-1,-0.02155859408557739,0.9609625012751457,0.7331047472692818,0.08300094926391466,0.03521188211380745,0.1152573974439493,-0.1157603780606888,-0.1263909691711262,0.02238532727238532,0.9185449599267916,-0.2504617558910808,-0.104422413811847,-0.796877919539462,-0.2499434813795242,0.03188287555488113,1,-0.5422623451563373,0.747167000130458,-0.1458263329886283,-0.2662857794509342,0.3411577881555766,0.1073731039030952,0.3059145541300746,-0.667509670186447,-0.2429678575227877,1,0.1468591256731231,0.9388362387000069,-0.01803164126148884,0.3094430239640373,-0.05784483380573464,0.0005274878781781551,-0.6091517837694621,-0.3527162424126652,0.07762361325755614,9.691283806006237e-05,0.4581940722421897,0.2087467310301183,-1,-0.480072766288289,0.7915562436207595,-0.06651397479804672,0.1907238496665333,1,-0.1193243173373931,0.2768289079683309,-1,-0.08528801891802246,-0.8787453622314118,0.07673928379518168,-0.5312128771749568,0.1043672477661073,0.267869859618402,-0.3685262040575915,0.05722980125604556,1,-0.09716600347616909,0.3759730284643047,0.5556442123950787,-0.07406205556516397,-0.3736481637745922,-0.009522419383253952,0.5837889232444599,1,-0.06031558133307557,-0.0005939194814621167,0.006668671754466306,0.0852221355684301,-0.00231203835524375,0.5872441205806347,-0.02287985519279404,0.1455001301278622,-0.04335604393957587,0.4304167909517604,0.4289953566837272,0.986500583793616,-0.323836514761385,-0.7654367011030588,0.0001486984511724194,0.3508809131158384,0.01125845446419115,-0.02363927469359346,0.05645577703859993,0.1451010457408706,-0.3792539940771668,-0.1578281065897235,-0.2870236476422888,6.294571127839112e-06,-0.0925159990421003,0.5678489327174867,-0.8076224523624803,-0.03125147287069576,1,0.8182982838004534,-0.5394120850376134,-0.1477446214001883,-0.0007967095223803333,0.05183066307012745,-0.009918921322964883,0.004951916305500039,0.266247928827112,0.04061847869557811,0.01146732456664769,-1,0.5182176245068093,0.1573525293810689,1,0.01999572404180832,0.07575129210528071,-1,0.083092033055501,-0.1067580326962262,0.03982158879965328,-0.397455314623923,0.09920603676216744,-0.4690791522333402,-0.07445281516492741,-0.5254560460083628,0.1162841210601062,-0.1532085369397949,0.6336693851107731,0.06477075465560908,0.3548105590929845,-0.03385021108455265,-0.6428680446790508,0.7402106103267547,0.3606601313000725,0.4768288407652206,-0.2749327291445005,-0.7327435464725818,0.1225991235600687,0.5264082658729597,0.337595186187665,-0.1461503252061252,0.05199482823203561,0.001928621848201022,0.03315611951715835,0.5773466353023768,-0.7633973947496654,-0.6665334063947094,-0.3098777143501852,1,-1,0.1926476321700215,0.07792388631864509,0.111979040486212,-0.5496264794601025,-0.4943535398339134,0.4699654120508004,0.2599643620405416,0.02444248236377706,1,0.027535956042259,0.0482848116945854,1,0.4124434383349355,0.0002945231118461503,0.01968109863594237,-0.7720758503144658,0.01528444781463022,0.04288950344937992,-0.1025382774385776,-0.2210771611562702,0.4396714073745938,0.4803696764715821,0.02902986411652458,0.005171908387276628,-0.09070196469336021,-0.005203655675873163,-1,0.662555604397165],[2,10,2,0.6712512939646603,-0.06256906295242046,0.001265691189335081,-0.2495829180819058,-0.002730637168672505,-0.01628057048269628,0.159877203157902,-0.6574296692093418,-0.007674551823130073,-0.003187047313003333,0.1052866864741336,-1,-0.05041341614395851,-0.6472735795224532,0.003124356747717764,-9.060983336453774e-05,-0.2358433880705316,-0.2633446420475094,1,-0.7381088220570887]]},{"Coords":[1,2,0,0],"Dir":3,"Fitness":102,"Food":0,"Name":[1,5,"MyAnt"],"biases":[1,2,[1,10,-0.4344828922510264,0.9244910257841895,0.6322459426456313,0.1537576460164394,0.00298363837733369,-0.129435086466263,-0.001314446310929937,-4.891742666898395e-05,0.412517905065712,-0.3407012251884081],[1,2,-0.5611616789133328,1]],"error_threshold":0.001,"learning_rate":0.5,"training_iterations":1000,"weights":[1,2,[2,27,10,-0.006625161723339969,-0.6995249822117287,0.06598746092334996,-0.4266228424715176,0.8585467335043376,-0.009118011275383874,0.5893869113259967,-0.5667196062473558,0.3853590237410297,-0.004236377036279184,1,-0.01671395356155099,-0.05148465953914552,0.3501832786124741,-0.475034174073969,0.00301250643901026,-0.8457273804945501,-0.6528688390672486,0.5444551721675448,-0.2388841593172808,-0.5823605835289521,-0.04324323899715318,0.01287498751661177,-0.003781378728739855,-0.003523377204633082,0.782943921506156,0.0530546644132362,-0.001705313068531135,1,0.001268997102066374,0.003709863382903541,1,-0.01871959475700202,-0.005144854082966682,0.1683469686662405,-0.04766449110737823,-0.5892433937088961,0.03209814669987419,0.00538521679108624,-0.1378278090465141,0.02157525035575009,-0.2498753440774358,0.1438210389208823,0.08291752423080077,-0.08998968874041757,0.1372671491734557,0.07081224310537516,0.05562445852217952,-1,0.1125239856169336,0.229418599888257,-0.2835375580579796,-0.01879892852329542,0.7164872309292083,-0.1808351182772907,-0.01508425714605654,-0.4488742667738601,-0.2719832527692544,-0.4920357771828361,0.2457364189828934,-0.4805444725750611,-0.09277558303599051,0.1716407388572624,0.04802924981634508,-0.4665577815117561,0.05070725305459527,-1,0.479584415407077,0.0002857646558092837,-0.1984560352935984,0.104310817150035,-0.1242843184103154,0.3670516111936997,0.0154659306635936,-0.1548314354993853,1,0.3206155989953099,0.2767825787660029,0.2621868417323918,-0.3724007999577984,1,0.121423742904803,-0.2169822628511836,0.5447296918791561,-0.1675859798209692,-0.2618406850908619,0.03286772734308833,0.4872640065165568,1,-0.7160569172645201,-1,0.03069402428740111,0.002482893807015197,0.6742198943835813,1,0.1315905787701324,0.5616188932191313,0.560987457265372,-1,-0.02155859408557739,0.9609625012751457,-0.2621604990212402,0.08300094926391466,-0.0405716025086082,0.1152573974439493,-0.1157603780606888,-0.07672077092640321,0.02238532727238532,0.9185449599267916,-0.1287093021422018,0.05843809409616694,-0.796877919539462,-0.2499434813795242,-0.0095820108378464,1,0.8004265263460028,1,-0.05769121058273236,-0.2527720595585308,0.3411577881555766,0.1355665064087588,0.3059145541300746,-0.667509670186447,-0.2429678575227877,1,0.1468591256731231,1,-0.01803164126148884,0.3094430239640373,-0.05784483380573464,0.0005274878781781551,-0.6091517837694621,-0.3527162424126652,0.008679072292494172,9.691283806006237e-05,0.4581940722421897,0.2087467310301183,-1,-0.480072766288289,0.7915562436207595,-0.06651397479804672,-0.04486062188078207,1,-0.1193243173373931,0.2768289079683309,0.2781183461588506,-0.08528801891802246,-0.8787453622314118,-0.05411224128598172,-0.5312128771749568,0.1043672477661073,0.267869859618402,-0.3685262040575915,0.07000338324508444,1,-0.1265518736202528,0.3759730284643047,0.9071126937208834,-0.07406205556516397,0.651184725556028,-0.009522419383253952,0.3731632119249608,-1,-0.06031558133307557,-0.0005939194814621167,0.006668671754466306,0.1502643395865649,-0.00231203835524375,0.5872441205806347,-0.02287985519279404,0.03422673618150582,-0.002907931106287608,0.4304167909517604,0.3073777773720785,-0.0148762400434063,-0.06848090550870217,-0.7654367011030588,0.0002390696069046427,0.3508809131158384,-0.007302899855174749,-0.0389263906307279,-0.06150689176239743,0.2479786413827869,-0.3792539940771668,-0.1578281065897235,-0.2870236476422888,6.294571127839112e-06,-0.0925159990421003,0.5678489327174867,1,-0.03125147287069576,1,0.8182982838004534,0.2367136664358192,-0.1477446214001883,-0.0007967095223803333,0.01250314070157531,-0.009918921322964883,-0.003975840757769922,0.266247928827112,0.04061847869557811,0.01146732456664769,-1,0.5182176245068093,0.1573525293810689,0.02641880437465849,0.01931773517825451,0.07575129210528071,-1,0.083092033055501,-0.1067580326962262,-0.04647368320127379,0.2098364680171165,0.09920603676216744,-0.4690791522333402,-0.07445281516492741,-0.5254560460083628,-0.1437361459785151,-0.1532085369397949,0.6336693851107731,0.06477075465560908,-0.3815181663939539,-0.03385021108455265,-0.6428680446790508,-1,0.3606601313000725,0.4768288407652206,-0.2749327291445005,-0.7327435464725818,0.1225991235600687,0.5264082658729597,0.337595186187665,-0.1461503252061252,0.05199482823203561,0.001928621848201022,0.009022481911340799,0.5773466353023768,-0.7633973947496654,-1,-0.604022736277437,0.8025531131296053,-1,0.1926476321700215,0.07792388631864509,0.111979040486212,-0.5496264794601025,-0.4943535398339134,0.4699654120508004,0.2599643620405416,0.02444248236377706,1,0.0272189383803161,0.0482848116945854,1,-0.8243579294147358,0.0002945231118461503,0.01968109863594237,0.3879064783114144,0.01528444781463022,0.04288950344937992,-0.008977473860560341,0.3982305456245003,0.5081866849313782,0.4803696764715821,0.02902986411652458,-0.005628283613910418,0.05865030072581099,-0.005203655675873163,-0.8022345371848991,0.662555604397165],[2,10,2,0.6712512939646603,-0.06256906295242046,-0.002465780440901943,-0.2495829180819058,-0.002730637168672505,-0.01584544075109843,0.159877203157902,-0.6574296692093418,-0.007674551823130073,-0.003187047313003333,0.1052866864741336,-1,-0.05041341614395851,-0.6472735795224532,0.003124356747717764,-9.060983336453774e-05,-0.2358433880705316,-0.2633446420475094,1,-0.7381088220570887]]},{"Coords":[1,2,0,0],"Dir":3,"Fitness":111,"Food":0,"Name":[1,5,"MyAnt"],"biases":[1,2,[1,10,-0.4344828922510264,1,0.6322459426456313,0.1537576460164394,0.00298363837733369,-0.129435086466263,-0.001314446310929937,-4.891742666898395e-05,-0.0494803292512958,-0.2941581267949617],[1,2,-0.5611616789133328,1]],"error_threshold":0.001,"learning_rate":0.5,"training_iterations":1000,"weights":[1,2,[2,27,10,-0.006625161723339969,-0.6995249822117287,0.06598746092334996,-0.4266228424715176,1,0.009592044220024656,0.4179869324541872,0.1322400770615718,0.3853590237410297,-0.004236377036279184,1,-0.01671395356155099,0.04643025982994579,-0.525383534637572,-0.475034174073969,0.00301250643901026,-0.4493877562431847,0.151261098191791,0.490499507199163,-0.2388841593172808,-0.5823605835289521,0.0729804007124073,0.01287498751661177,-0.003781378728739855,-0.003523377204633082,0.782943921506156,0.1231938095149864,-0.001705313068531135,1,0.0007920151474911283,0.004046498566617038,0.4545047181167239,0.04326277535783064,-0.001916215668936932,-0.08023187588838947,-0.02560778415523557,-0.06206741910546502,-0.03844623146195748,-0.01057099231904837,-0.1378278090465141,0.02157525035575009,-0.2498753440774358,0.1438210389208823,0.08291752423080077,-0.03931467172487189,0.1372671491734557,0.08167594504006383,0.05562445852217952,-1,0.1125239856169336,-0.004647182515801088,-0.2835375580579796,-0.01879892852329542,0.6658886566756808,-0.1808351182772907,0.02214505461029212,-0.1523724445032411,-0.2719832527692544,-0.4920357771828361,0.2457364189828934,-0.4805444725750611,-0.09277558303599051,0.04821117468022208,0.04802924981634508,-0.4396945071761569,0.05070725305459527,-1,0.479584415407077,-0.0003157932294183263,-0.1984560352935984,0.104310817150035,-0.1242843184103154,-0.2794849207171863,0.0154659306635936,-0.1548314354993853,-1,0.3206155989953099,0.2302365168959452,0.05368741716159707,0.4480463090486082,1,-0.2380776556714,0.3635289730055523,0.5447296918791561,-0.1463550296133939,-0.1679642603255516,0.02520380896716917,0.4872640065165568,1,-0.868026607202663,-1,-0.04237390808984027,0.002482893807015197,-0.08613530283422427,1,-0.1640586795484375,0.9585470301978724,0.560987457265372,1,-0.02155859408557739,0.9609625012751457,-0.2621604990212402,0.08300094926391466,-0.0405716025086082,-0.06686650749414519,0.09898213036826382,-0.07672077092640321,0.02238532727238532,0.9185449599267916,-0.1287093021422018,0.05843809409616694,-0.796877919539462,-0.2499434813795242,-0.0095820108378464,1,0.8004265263460028,0.700102737948701,-0.05769121058273236,-0.2527720595585308,0.3411577881555766,-0.1863251924662159,0.1434557527229742,-0.667509670186447,-0.2472317716424955,1,0.1468591256731231,1,0.03330079196979559,0.3094430239640373,-0.05784483380573464,0.0005274878781781551,-0.6091517837694621,-0.3625612674730128,0.008679072292494172,9.691283806006237e-05,0.4581940722421897,0.3438036617317328,1,-0.480072766288289,0.7915562436207595,-0.06651397479804672,-0.04486062188078207,1,0.03414504833036491,-0.07990403054726601,0.2781183461588506,-0.08528801891802246,-1,-0.006844979787811297,-0.57636879319323,0.1043672477661073,0.267869859618402,0.7364661684553634,0.07000338324508444,-1,-0.1265518736202528,0.3759730284643047,-1,-0.07406205556516397,-0.3124988608170325,-0.009522419383253952,0.3480714252218518,-1,-0.06031558133307557,0.0008962967367984054,0.00708931017418985,-0.007007180925979009,-0.00231203835524375,0.5872441205806347,-0.02287985519279404,-0.06396702124188602,0.002300547267986417,0.4304167909517604,0.01282922484179909,-0.0148762400434063,-0.07396729816234951,-0.2820570436471297,0.0002390696069046427,0.3508809131158384,-0.007302899855174749,-0.05063031474742328,0.1759485924237203,0.2479786413827869,0.156795991884236,0.2581616625753659,-0.2870236476422888,6.294571127839112e-06,-0.0925159990421003,0.5678489327174867,0.1277063088621442,0.007494526080670157,1,-1,0.2367136664358192,0.1217764847747788,-0.0007665121121290233,0.01250314070157531,-0.01175375769504262,-0.003118633121622484,-0.4953670347920039,-0.01186705435871353,-0.003843586418272612,-1,-0.008467262906481657,-0.2706959705560439,-0.0087399910296847,0.01931773517825451,0.163299831023943,-1,-0.02175486644191728,0.1901747670782824,0.06560403846904937,0.3133497812184607,0.09920603676216744,-0.2304558955081126,0.1421803194076777,-0.004208557743818643,-0.1437361459785151,-0.04558553118745173,0.6336693851107731,0.06477075465560908,-0.3815181663939539,-0.03385021108455265,-0.6428680446790508,0.4787909807772883,0.3606601313000725,0.4768288407652206,-0.5189663044716503,-0.7327435464725818,-0.1064520833177242,0.5264082658729597,-0.1805639338509769,-0.1461503252061252,0.008652058137164909,-0.003172225025513404,-0.005351173256476579,0.5773466353023768,-0.7633973947496654,-1,-0.604022736277437,0.8025531131296053,-1,0.1926476321700215,-0.07695402189774071,0.111979040486212,-0.3239802797235793,-0.2956669003535788,0.4699654120508004,0.2599643620405416,0.006201477108662621,1,-0.008048511815390499,0.0482848116945854,1,0.8933517176757145,0.0002945231118461503,0.01968109863594237,-0.6492416009763087,-0.008570114873214718,0.04288950344937992,-0.008977473860560341,-0.4585968130876106,0.5081866849313782,0.4803696764715821,0.02902986411652458,-0.005628283613910418,0.05865030072581099,-0.01027875999035782,-0.8022345371848991,-0.765616974572948],[2,10,2,0.6712512939646603,-0.06256906295242046,-0.002465780440901943,-0.2495829180819058,-0.001611787446633344,0.01779264096362559,0.07886761751070831,-0.01185411268074364,-0.007674551823130073,-0.003187047313003333,0.1052866864741336,-1,-0.05041341614395851,-0.6472735795224532,0.003124356747717764,0.0001369224128710738,-0.2358433880705316,0.1655850677120682,1,-0.6289581713531742]]},{"Coords":[1,2,0,0],"Dir":3,"Fitness":115,"Food":0,"Name":[1,5,"MyAnt"],"biases":[1,2,[1,10,-0.4344828922510264,0.8067373418777435,0.6322459426456313,0.1537576460164394,0.00298363837733369,-0.129435086466263,-0.001314446310929937,-4.891742666898395e-05,-0.0494803292512958,-0.2941581267949617],[1,2,-0.5611616789133328,1]],"error_threshold":0.001,"learning_rate":0.5,"training_iterations":1000,"weights":[1,2,[2,27,10,-0.006625161723339969,-0.6995249822117287,0.06598746092334996,-0.4266228424715176,1,0.009592044220024656,0.4179869324541872,0.1322400770615718,0.3853590237410297,-0.004236377036279184,1,-0.01671395356155099,0.04643025982994579,0.3014071013566869,-0.475034174073969,0.00301250643901026,-0.383076724506517,0.151261098191791,0.490499507199163,-0.2388841593172808,-0.4962018259525694,0.0729804007124073,0.01287498751661177,-0.003781378728739855,-0.003977149367657834,0.782943921506156,0.1231938095149864,-0.002730352252780681,1,0.0007920151474911283,0.004046498566617038,0.4545047181167239,0.04326277535783064,-0.001916215668936932,-0.08023187588838947,-0.02560778415523557,-0.06206741910546502,-0.03844623146195748,-0.01712368889801898,-0.1378278090465141,0.02157525035575009,-0.09505773228994761,0.1438210389208823,0.08291752423080077,-0.03931467172487189,0.1372671491734557,0.08167594504006383,0.05562445852217952,-1,0.1125239856169336,-0.004647182515801088,-0.2835375580579796,-0.01879892852329542,0.6658886566756808,-0.1808351182772907,0.02214505461029212,-0.2983758960911678,0.529624974689156,-0.4920357771828361,0.2457364189828934,0.3505086864259352,-0.09277558303599051,0.04821117468022208,0.04802924981634508,-0.4396945071761569,0.05070725305459527,-1,0.06793015273069107,-0.0003157932294183263,-0.1984560352935984,0.1647565888914498,-0.1242843184103154,-0.2794849207171863,0.0154659306635936,-0.1548314354993853,-1,0.3206155989953099,0.2302365168959452,0.05368741716159707,0.4480463090486082,1,-0.2380776556714,0.3635289730055523,0.5447296918791561,0.08637032542869305,-0.1679642603255516,0.02520380896716917,0.4872640065165568,-1,-1,-1,0.06120725729688812,0.002482893807015197,-0.1673231960156644,1,-0.1640586795484375,0.9585470301978724,0.560987457265372,-1,-0.02155859408557739,0.9609625012751457,-0.2621604990212402,0.08300094926391466,-0.0405716025086082,-0.06686650749414519,0.09898213036826382,-0.07672077092640321,0.02238532727238532,0.9185449599267916,-0.1399912656073742,-0.009628907822432899,0.4299384293124382,-0.2499434813795242,-0.0095820108378464,1,0.8004265263460028,0.700102737948701,-0.009067643453273851,-0.2527720595585308,0.3411577881555766,-0.1863251924662159,0.1434557527229742,-0.667509670186447,-0.2472317716424955,1,-0.247808494147861,0.2933747203242674,0.05898310711282033,0.3094430239640373,0.1071818725501413,-0.001006560869065862,-0.6091517837694621,-0.3625612674730128,-0.004554961585702612,9.691283806006237e-05,0.4581940722421897,-0.1525369899798907,1,0.02674314363226342,0.1438167348812881,-0.06651397479804672,-0.04486062188078207,1,-0.002319197159592723,-0.07990403054726601,0.2781183461588506,-0.08528801891802246,-1,-0.006844979787811297,0.694424502214997,0.1043672477661073,0.267869859618402,0.7364661684553634,0.07000338324508444,-1,-0.1265518736202528,0.3759730284643047,-1,-0.07406205556516397,-0.3124988608170325,-0.009522419383253952,-0.02789706395590718,-1,-0.105446978340474,0.0008962967367984054,0.00708931017418985,-0.007007180925979009,-0.00231203835524375,-0.6993344801676379,-0.02287985519279404,-0.06396702124188602,0.002300547267986417,0.4304167909517604,0.01282922484179909,-0.005126276721405834,0.1063098055805192,-0.2820570436471297,-0.0001178943473181429,0.3508809131158384,-0.007302899855174749,-0.05063031474742328,0.1759485924237203,0.2479786413827869,0.156795991884236,0.2581616625753659,-0.2870236476422888,8.333082270564559e-06,-0.0925159990421003,0.5678489327174867,0.1277063088621442,0.007494526080670157,1,-0.6949512766856363,0.2367136664358192,0.1217764847747788,-0.0007665121121290233,0.01250314070157531,-0.01175375769504262,-0.003118633121622484,-0.4953670347920039,-0.01186705435871353,-0.003843586418272612,-1,-0.008467262906481657,0.4640713439669227,0.01617918289262509,0.01931773517825451,0.163299831023943,-1,-0.02175486644191728,0.1901747670782824,-0.01010610370398491,0.3133497812184607,0.09920603676216744,-0.2304558955081126,0.1421803194076777,-0.000463414755816894,-0.1437361459785151,-0.0790950208907823,0.6336693851107731,0.06477075465560908,-0.3815181663939539,-0.03385021108455265,-0.6428680446790508,0.4787909807772883,0.3606601313000725,0.4768288407652206,-0.5189663044716503,-0.7327435464725818,-0.1064520833177242,0.5264082658729597,-0.1805639338509769,0.2030880554590097,0.008652058137164909,-0.003172225025513404,-0.001814700627891516,0.5773466353023768,-0.7633973947496654,-1,-0.604022736277437,0.8025531131296053,-1,-0.3740823859309354,-0.07695402189774071,0.111979040486212,0.1036523671269646,0.05195395312869323,0.4699654120508004,0.2599643620405416,0.006201477108662621,1,-0.008048511815390499,0.0482848116945854,1,0.8933517176757145,-0.000101629578638863,0.01968109863594237,-0.3210737623981119,-0.008570114873214718,0.04288950344937992,-0.003126002209406074,-0.4585968130876106,0.01792157965491929,0.4803696764715821,0.02902986411652458,0.01003079742177595,0.05865030072581099,0.01509384250297001,0.9947401708769461,-0.765616974572948],[2,10,2,0.6712512939646603,-0.06256906295242046,-0.002465780440901943,-0.2495829180819058,-0.001611787446633344,0.01779264096362559,0.009134832957939055,-0.01185411268074364,-0.007674551823130073,-0.003187047313003333,0.1052866864741336,-1,-0.05041341614395851,-0.6472735795224532,0.003124356747717764,0.0001369224128710738,-0.2358433880705316,0.1655850677120682,1,-0.2266288255721311]]},{"Coords":[1,2,0,0],"Dir":3,"Fitness":151,"Food":0,"Name":[1,5,"MyAnt"],"biases":[1,2,[1,10,-0.4344828922510264,0.8067373418777435,-0.1321194918331189,0.2715611334856254,0.00298363837733369,-0.129435086466263,-0.001314446310929937,-4.891742666898395e-05,0.07138541099839796,-0.2941581267949617],[1,2,-0.5611616789133328,1]],"error_threshold":0.001,"learning_rate":0.5,"training_iterations":1000,"weights":[1,2,[2,27,10,-0.005677547309932374,-0.6995249822117287,-0.07849700548348927,-0.4266228424715176,1,0.009592044220024656,0.4179869324541872,0.1322400770615718,0.3853590237410297,-0.004236377036279184,1,-0.01671395356155099,-0.06735482178455439,0.3014071013566869,-0.5125796011901637,-0.005470000984248359,-0.3992701241922905,0.151261098191791,0.6380134516842375,0.2423646280292162,-0.4962018259525694,0.0729804007124073,0.01375798043730219,-0.0001927230641970611,0.00347483795247825,0.782943921506156,0.1231938095149864,-0.002730352252780681,1,0.0007920151474911283,0.004046498566617038,0.4545047181167239,0.04326277535783064,-0.003481623145025921,-0.01587565079018113,-0.02560778415523557,-0.01280719343642988,-0.03844623146195748,-0.01712368889801898,-0.1378278090465141,-0.03286446285659097,-0.09505773228994761,0.1438210389208823,0.08291752423080077,-0.03931467172487189,0.1372671491734557,0.08167594504006383,0.05562445852217952,-0.01048297716167435,0.1125239856169336,-0.008834548620336249,-0.1078793493426524,-0.01879892852329542,0.6658886566756808,-0.1808351182772907,0.02214505461029212,-0.2983758960911678,0.07009618223305786,-0.4920357771828361,0.2457364189828934,0.3505086864259352,-0.09277558303599051,0.04821117468022208,0.04802924981634508,-0.4396945071761569,-0.02889754009876319,-1,0.06793015273069107,0.0005091651295993161,-0.1984560352935984,0.1647565888914498,-0.1711014240168972,-0.2794849207171863,-0.01545978649915349,-0.2981746564571372,-1,-0.05811797627925155,0.3926992116021368,0.05368741716159707,0.4480463090486082,1,-0.1438328784529035,-0.258815039116262,0.5447296918791561,0.08637032542869305,-0.1679642603255516,0.02062480409304519,0.4872640065165568,-0.5219225607128828,-1,-1,0.06120725729688812,-0.001013392115328515,0.07592659631582674,0.6627184796736771,-0.1640586795484375,0.9585470301978724,0.560987457265372,-1,-0.02155859408557739,0.9609625012751457,-0.2621604990212402,0.08300094926391466,-0.0405716025086082,-0.06686650749414519,0.09898213036826382,-0.07672077092640321,0.03289636210064574,0.9185449599267916,0.1844687670479926,-0.009628907822432899,0.4299384293124382,-0.2133890312505269,-0.0095820108378464,1,0.4952202703366778,0.700102737948701,-0.009067643453273851,-0.2527720595585308,0.3411577881555766,-0.1863251924662159,0.1434557527229742,-0.667509670186447,-0.2472317716424955,1,-0.247808494147861,0.2933747203242674,0.05898310711282033,0.0916344399015963,0.1071818725501413,-0.001006560869065862,-1,-0.3625612674730128,-0.004554961585702612,9.691283806006237e-05,-0.03065667479846955,0.06691289596876229,1,0.02674314363226342,0.1438167348812881,-0.1284346583704282,-0.04486062188078207,0.3672366414664654,0.001841584709823625,-0.07990403054726601,0.30940561992126,-0.08528801891802246,-1,-0.006844979787811297,0.694424502214997,0.1043672477661073,0.3215557475908775,0.7364661684553634,0.07000338324508444,-1,0.064646321921166,0.3759730284643047,1,-0.07406205556516397,-0.3124988608170325,-0.009522419383253952,-0.02789706395590718,-0.8279875142088771,-0.105446978340474,0.001377817064311587,0.00708931017418985,-0.007007180925979009,0.007218522493165785,-0.6993344801676379,0.04257753565580179,-0.0142496314703526,0.002300547267986417,0.4304167909517604,0.01282922484179909,-0.009145526936209581,0.1906703053812492,0.3826327023346531,-0.0001178943473181429,0.3508809131158384,0.00114061594812509,-0.05063031474742328,0.02480918747977271,0.2479786413827869,-0.1819291110114881,0.2581616625753659,0.1516702121464827,8.333082270564559e-06,0.08418266238032895,0.5678489327174867,-0.245881431129467,0.007494526080670157,-0.6314008810803258,-0.6949512766856363,0.2367136664358192,0.1217764847747788,0.0009577176972181717,0.02457731009108299,-0.01238542736865296,-0.003118633121622484,-0.4953670347920039,0.001567393633777592,0.002416267560675624,-1,-0.008467262906481657,0.4640713439669227,-0.01408774107595055,-0.01595424917917397,0.2166233700740688,-1,-0.02175486644191728,0.1901747670782824,-0.01155333015481427,0.3133497812184607,0.09920603676216744,-0.2304558955081126,0.1173678140679287,-0.000463414755816894,-0.1437361459785151,0.1223896658133678,0.6336693851107731,0.03978965846143373,-0.3815181663939539,-0.03385021108455265,-0.6428680446790508,0.4787909807772883,0.3606601313000725,0.5543171302142915,-0.08861129079601297,-0.7327435464725818,-0.1064520833177242,0.5264082658729597,-0.2249778059633172,0.2030880554590097,0.008652058137164909,-0.003172225025513404,-0.001814700627891516,0.007994976653178887,-0.7224193656259444,-1,-0.604022736277437,1,-1,-0.3740823859309354,-0.07695402189774071,0.198417660357119,0.1036523671269646,0.05195395312869323,-0.3432184029199589,0.2599643620405416,0.006201477108662621,1,-0.008048511815390499,0.0482848116945854,1,0.719186503462978,0.0001586329651460628,0.01968109863594237,-0.3210737623981119,-0.008570114873214718,0.07127890005161058,-0.003126002209406074,-0.4585968130876106,0.01792157965491929,0.4803696764715821,0.02902986411652458,0.007275586267785958,0.05865030072581099,0.008191829027351303,0.9947401708769461,0.83454424569325],[2,10,2,0.6712512939646603,-0.06256906295242046,-0.002465780440901943,-0.1775007172923988,-0.001611787446633344,0.01779264096362559,0.006460670601024839,-0.01185411268074364,-0.007674551823130073,-0.003187047313003333,0.1052866864741336,-1,-0.05041341614395851,-0.7695285316981334,0.003124356747717764,0.0001369224128710738,-0.2358433880705316,0.1655850677120682,1,-0.2266288255721311]]},{"Coords":[1,2,0,0],"Dir":3,"Fitness":154,"Food":0,"Name":[1,5,"MyAnt"],"biases":[1,2,[1,10,-0.4344828922510264,0.8067373418777435,-0.1321194918331189,0.2715611334856254,0.00298363837733369,-0.129435086466263,-0.002620666504211944,-4.891742666898395e-05,0.07138541099839796,-0.2941581267949617],[1,2,-0.5611616789133328,1]],"error_threshold":0.001,"learning_rate":0.5,"training_iterations":1000,"weights":[1,2,[2,27,10,-0.005677547309932374,-0.6995249822117287,-0.07849700548348927,-0.4266228424715176,1,0.009592044220024656,0.4179869324541872,0.008856724823543979,0.3853590237410297,-0.004236377036279184,0.6975921672118965,-0.01671395356155099,-0.06735482178455439,0.3014071013566869,-0.5125796011901637,0.001285905172492286,-0.3992701241922905,0.151261098191791,0.6380134516842375,0.2423646280292162,-0.4962018259525694,0.05138678293485236,0.01375798043730219,-0.0001927230641970611,0.00347483795247825,0.782943921506156,0.1231938095149864,-0.002730352252780681,1,0.0007920151474911283,0.004046498566617038,0.4545047181167239,0.04326277535783064,-0.003481623145025921,-0.01587565079018113,-0.02560778415523557,-0.01280719343642988,-0.03844623146195748,-0.01382874820387878,-0.1378278090465141,-0.03286446285659097,-0.09505773228994761,-0.03706297531963852,0.06449473208980823,-0.02776306760132651,0.1372671491734557,-0.09578362047523659,0.05562445852217952,-0.01048297716167435,0.1125239856169336,-0.008834548620336249,-0.1011365860317245,-0.01879892852329542,-1,-0.1808351182772907,0.02214505461029212,-0.2983758960911678,0.07009618223305786,-0.4920357771828361,-0.3304162634260749,0.3505086864259352,-0.09277558303599051,0.07244372265930522,0.04802924981634508,-0.4396945071761569,-0.02889754009876319,-1,0.01292897799313299,0.0005588322906246801,-0.06999810800718916,0.1647565888914498,-0.322997052161036,-0.2794849207171863,-0.01545978649915349,0.4997558087924445,-1,-0.05811797627925155,0.3926992116021368,0.01206897968016286,0.4480463090486082,1,-0.06879438536429094,0.1025807435678215,-0.7712704533528283,0.08637032542869305,0.1633329593535061,0.01584640517052133,0.4872640065165568,-0.5219225607128828,-1,-1,0.06120725729688812,-0.001013392115328515,0.07592659631582674,0.6627184796736771,-0.1640586795484375,0.9585470301978724,0.560987457265372,-1,0.01200947221461723,0.9609625012751457,-0.2621604990212402,0.08300094926391466,-0.0405716025086082,-0.06686650749414519,0.09898213036826382,-0.1092461595872883,0.03289636210064574,0.9185449599267916,0.03754373732254244,-0.009628907822432899,0.4299384293124382,-0.2133890312505269,-0.0095820108378464,1,-0.8429876381541677,0.700102737948701,-0.009067643453273851,-0.2527720595585308,-0.3660852182895359,-0.1863251924662159,0.1434557527229742,-0.667509670186447,-0.2472317716424955,-0.2663315287031343,-0.247808494147861,0.2933747203242674,0.05898310711282033,0.08718366929647196,-0.1168195296082451,-0.001006560869065862,-1,-0.3625612674730128,-0.004554961585702612,9.691283806006237e-05,-0.03065667479846955,0.1126921521907211,1,0.02674314363226342,0.1438167348812881,-0.1284346583704282,0.03139288912918347,0.3672366414664654,0.001841584709823625,-0.07990403054726601,0.30940561992126,-0.08528801891802246,-1,-0.006844979787811297,0.694424502214997,0.1571335125397105,0.3215557475908775,0.7364661684553634,-0.01128944325178804,-1,0.08895811768959558,0.3759730284643047,1,-0.07406205556516397,-0.4921061804547514,-0.009522419383253952,-0.02789706395590718,-0.8279875142088771,-0.105446978340474,0.001377817064311587,0.00708931017418985,-0.007007180925979009,0.007218522493165785,-0.6993344801676379,0.04257753565580179,-0.02230064988065027,0.002300547267986417,0.4304167909517604,0.01282922484179909,-0.009145526936209581,0.1906703053812492,0.3826327023346531,-0.0001178943473181429,0.3508809131158384,0.00114061594812509,-0.05063031474742328,0.02480918747977271,-0.4643904807966903,-0.1819291110114881,0.2581616625753659,0.1516702121464827,8.333082270564559e-06,0.08418266238032895,0.5678489327174867,-0.245881431129467,0.007494526080670157,-0.6314008810803258,-0.03633977188148321,-0.3235103662350498,-0.02793425409719055,0.0009577176972181717,0.02457731009108299,-0.01238542736865296,-0.003118633121622484,-0.4953670347920039,0.001567393633777592,0.002416267560675624,-1,-0.008467262906481657,0.4640713439669227,-0.01408774107595055,0.01933310613053619,0.2166233700740688,-1,-0.02175486644191728,0.1901747670782824,-0.01155333015481427,0.1585088032778839,0.09920603676216744,-0.2304558955081126,0.1173678140679287,0.0007738769766880262,-0.1437361459785151,0.1223896658133678,0.6336693851107731,-0.02998340644424675,-0.3815181663939539,-0.03385021108455265,-0.6428680446790508,0.4787909807772883,0.3606601313000725,0.5543171302142915,-0.08861129079601297,-0.7327435464725818,-0.1064520833177242,0.1754345760011701,0.03095397167321695,0.2030880554590097,0.002482082517112759,-0.005415418517574569,-0.0004207543633798648,-0.0137712351523207,-0.7224193656259444,1,-0.604022736277437,1,-1,-0.3740823859309354,-0.07695402189774071,0.198417660357119,0.1036523671269646,0.05195395312869323,-0.3432184029199589,0.3587839133203686,0.006201477108662621,1,-0.008048511815390499,0.0482848116945854,1,-1,0.0001586329651460628,-0.03380455516638373,-0.3210737623981119,-0.01421147492570809,0.07127890005161058,-0.003126002209406074,-0.4585968130876106,0.01792157965491929,-0.5158307399869129,0.02902986411652458,0.007275586267785958,0.05865030072581099,0.008191829027351303,0.9947401708769461,0.83454424569325],[2,10,2,0.6712512939646603,-0.06256906295242046,-0.002465780440901943,-0.1775007172923988,-0.001611787446633344,0.01779264096362559,0.006460670601024839,-0.01185411268074364,-0.007674551823130073,-0.003187047313003333,0.1052866864741336,-1,-0.05041341614395851,-0.7695285316981334,0.003124356747717764,0.0001369224128710738,-0.2358433880705316,0.1655850677120682,1,-0.2266288255721311]]},{"Coords":[1,2,0,0],"Dir":3,"Fitness":157,"Food":0,"Name":[1,5,"MyAnt"],"biases":[1,2,[1,10,-0.6475730508204243,0.8067373418777435,-0.1321194918331189,0.2715611334856254,0.00298363837733369,-0.129435086466263,-0.002620666504211944,-4.891742666898395e-05,0.08018233570057404,-0.2941581267949617],[1,2,-0.5611616789133328,1]],"error_threshold":0.001,"learning_rate":0.5,"training_iterations":1000,"weights":[1,2,[2,27,10,-0.005677547309932374,-0.6995249822117287,-0.07849700548348927,-0.4266228424715176,1,0.009592044220024656,0.4179869324541872,0.008856724823543979,0.3853590237410297,-0.004236377036279184,0.6975921672118965,-0.01671395356155099,-0.06735482178455439,0.3014071013566869,-0.7494382183366805,0.0006575457742770323,-0.3992701241922905,0.151261098191791,0.6380134516842375,0.1325022174037874,-0.4962018259525694,0.05138678293485236,0.01375798043730219,-0.0001927230641970611,0.00347483795247825,0.782943921506156,0.1231938095149864,0.005337097857272559,1,0.001333880828680459,0.004046498566617038,0.4545047181167239,0.04326277535783064,-0.003481623145025921,-0.01587565079018113,-0.02560778415523557,-0.01280719343642988,0.06794794476718839,-0.01382874820387878,-0.1378278090465141,-0.03286446285659097,-0.09505773228994761,-0.03706297531963852,0.05255789408555565,0.05031549463543419,0.1372671491734557,-0.1303516276972543,0.05562445852217952,0.01085498346052116,0.1125239856169336,-0.01075604299928586,-0.1011365860317245,-0.009758572982777521,-1,0.1325372737049454,0.02214505461029212,0.3004105109903973,0.07009618223305786,-0.8417278230118256,-0.3304162634260749,0.3505086864259352,-0.09277558303599051,0.07244372265930522,-0.0904353726758427,-0.4396945071761569,-0.05752206038458265,-1,-0.02469601531338703,0.0005487744792737343,-0.06999810800718916,0.1647565888914498,-0.322997052161036,-0.2794849207171863,-0.01545978649915349,0.4997558087924445,-1,-0.02340123520138561,0.3926992116021368,0.01206897968016286,0.06421850342833822,1,-0.06879438536429094,0.1647612012565405,-0.4150095963938321,0.08637032542869305,0.1633329593535061,0.01584640517052133,0.4872640065165568,-0.5219225607128828,-0.9282462405537157,-1,0.06120725729688812,-0.001013392115328515,0.1493250014045183,0.6627184796736771,0.2468018087608312,0.9585470301978724,0.560987457265372,-1,0.01200947221461723,1,0.4496925437331698,0.08300094926391466,-0.0405716025086082,-0.06686650749414519,0.09898213036826382,-0.01431940766282558,0.03289636210064574,0.9185449599267916,0.03754373732254244,-0.009628907822432899,0.4299384293124382,-0.2133890312505269,-0.0095820108378464,1,-0.8429876381541677,0.700102737948701,-0.009067643453273851,-0.2527720595585308,-0.3660852182895359,-0.1863251924662159,0.1434557527229742,0.540178982292061,-0.2472317716424955,-0.2663315287031343,-0.247808494147861,0.2933747203242674,-0.03545254515684546,0.08718366929647196,-0.1168195296082451,-0.001006560869065862,-1,-0.3625612674730128,-0.004554961585702612,0.0001686186119492193,-0.03065667479846955,0.0226257076533283,1,-0.009072682261662291,0.1438167348812881,-0.1284346583704282,0.06217898037436916,0.3672366414664654,0.001841584709823625,-0.07990403054726601,0.30940561992126,-0.08528801891802246,-0.5728135632452482,-0.006844979787811297,0.694424502214997,0.02833496656197576,0.3603596228352898,0.7364661684553634,-0.01128944325178804,-1,0.004848514771395794,0.3759730284643047,1,-0.07406205556516397,-0.4921061804547514,-0.009522419383253952,-0.02789706395590718,1,-0.105446978340474,0.001377817064311587,0.00708931017418985,-0.007007180925979009,0.007218522493165785,-0.6980428950495229,0.04257753565580179,-0.02230064988065027,0.002300547267986417,0.4304167909517604,0.01282922484179909,-0.009145526936209581,0.1906703053812492,0.3826327023346531,-0.0001178943473181429,0.3508809131158384,0.00114061594812509,-0.05063031474742328,0.02480918747977271,-0.4643904807966903,-0.2178619693328188,0.2581616625753659,0.1516702121464827,8.333082270564559e-06,0.08418266238032895,0.5678489327174867,-0.245881431129467,0.007494526080670157,-0.6314008810803258,-0.03633977188148321,-0.3235103662350498,-0.02793425409719055,0.0009577176972181717,0.02457731009108299,-0.01238542736865296,-0.003118633121622484,-0.4953670347920039,0.001567393633777592,0.002416267560675624,-0.6547604512220331,-0.008467262906481657,0.4640713439669227,-0.007709962259658696,-0.006819311975831036,0.2166233700740688,-1,-0.02175486644191728,0.1901747670782824,-0.01155333015481427,0.1585088032778839,0.09920603676216744,-0.2304558955081126,0.09983891065365191,-0.00091406270017472,-0.1437361459785151,0.1223896658133678,0.5224557745154498,-0.02998340644424675,-0.3815181663939539,-0.03385021108455265,-0.6428680446790508,0.4787909807772883,0.3606601313000725,0.5543171302142915,-0.08861129079601297,-0.7327435464725818,-0.1064520833177242,0.1754345760011701,0.0528211382752334,0.2030880554590097,0.002482082517112759,-0.005415418517574569,-0.0004207543633798648,-0.0137712351523207,-0.7224193656259444,1,-0.604022736277437,1,-1,-0.3740823859309354,-0.07695402189774071,0.198417660357119,0.1036523671269646,0.05195395312869323,-0.3432184029199589,0.3587839133203686,0.006201477108662621,1,0.01534395179272809,0.0482848116945854,1,-1,5.313460474388475e-05,-0.03380455516638373,-0.3210737623981119,-0.01638851430524442,0.1298599868713524,-0.003126002209406074,-0.4585968130876106,0.01792157965491929,-0.5158307399869129,0.01657433998244305,0.007275586267785958,0.04986161845626383,0.008191829027351303,0.9947401708769461,0.08185867832148491],[2,10,2,0.6061317091869017,-0.09792745295328319,-0.002465780440901943,-0.1775007172923988,-0.001611787446633344,0.03334265206688746,0.006460670601024839,-0.01185411268074364,-0.007674551823130073,-0.003187047313003333,0.1052866864741336,-1,0.05600668246333281,-0.7695285316981334,0.003124356747717764,0.0001369224128710738,-0.2358433880705316,0.1655850677120682,1,-0.2266288255721311]]},{"Coords":[1,2,0,0],"Dir":3,"Fitness":160,"Food":0,"Name":[1,5,"MyAnt"],"biases":[1,2,[1,10,-0.6475730508204243,0.8067373418777435,-0.1321194918331189,0.2715611334856254,0.00298363837733369,-0.129435086466263,-0.002620666504211944,-4.891742666898395e-05,0.08018233570057404,-0.0333077836067336],[1,2,-0.5611616789133328,1]],"error_threshold":0.001,"learning_rate":0.5,"training_iterations":1000,"weights":[1,2,[2,27,10,0.002897996586283518,-1,-0.07849700548348927,-0.4266228424715176,1,0.009592044220024656,0.4179869324541872,0.008856724823543979,0.3853590237410297,-0.004236377036279184,0.6566538946360088,-0.01671395356155099,-0.07894865437367575,0.3014071013566869,-0.7494382183366805,0.0006575457742770323,-0.4701505806229668,0.1314173106078908,0.6380134516842375,0.1325022174037874,-0.4962018259525694,0.05138678293485236,0.01375798043730219,-0.0001927230641970611,-0.005791202973507113,0.782943921506156,0.1231938095149864,0.005337097857272559,1,-0.0004437717554351921,0.004046498566617038,0.4545047181167239,0.04326277535783064,-0.0003866916540022207,-0.01587565079018113,-0.02560778415523557,0.02022557370891701,0.06794794476718839,-0.01382874820387878,-0.1194057877079329,-0.03286446285659097,0.1605155383466382,-0.03706297531963852,0.05255789408555565,0.05031549463543419,0.1372671491734557,-0.1303516276972543,0.04032365113720441,0.01085498346052116,0.1125239856169336,-0.01075604299928586,-0.1011365860317245,-0.009758572982777521,-1,0.1325372737049454,0.01458757873762364,0.3004105109903973,-0.09605094855784121,-1,-0.3039366296668166,0.3505086864259352,-0.09277558303599051,-0.07354909456950197,0.1270338311554975,-0.7307841318654528,-0.05752206038458265,-1,-0.02469601531338703,0.0006035404585211359,-0.06999810800718916,-0.04682524614626082,-0.322997052161036,-0.2794849207171863,-0.01545978649915349,0.4997558087924445,-1,-0.02340123520138561,0.3926992116021368,0.01206897968016286,0.06421850342833822,1,-0.06879438536429094,0.1647612012565405,-0.4150095963938321,-0.06418415535359989,0.1803623804748415,0.01584640517052133,-0.7250881915077141,-0.5219225607128828,0.3799831049654339,-1,-0.02488397717824869,-0.001013392115328515,0.1493250014045183,-0.4281575986587175,0.2468018087608312,0.9585470301978724,0.560987457265372,-1,0.01200947221461723,1,0.4496925437331698,0.0877983114071368,-0.0405716025086082,-0.06686650749414519,0.09898213036826382,-0.01431940766282558,0.03289636210064574,0.9185449599267916,0.03754373732254244,-0.008964729271225701,0.6481733009497728,-0.2133890312505269,-0.0095820108378464,1,-0.8429876381541677,0.700102737948701,-0.009067643453273851,-0.2527720595585308,-0.3660852182895359,-0.1863251924662159,-0.142129885249676,0.540178982292061,-0.2472317716424955,-0.2663315287031343,-0.1121696611619344,0.2933747203242674,0.008938647160807427,0.1085127649455543,0.1868441620437637,-0.001006560869065862,-1,0.398354454160917,-0.004554961585702612,-0.0001890459137236478,0.0008501624639934487,0.02730555767502624,1,-0.009072682261662291,0.1438167348812881,-0.1284346583704282,0.06217898037436916,0.4092377806764934,0.001841584709823625,-0.1128525636056205,0.30940561992126,-0.08528801891802246,-0.5728135632452482,-0.006844979787811297,0.694424502214997,0.02833496656197576,0.3603596228352898,0.7364661684553634,-0.01928030110420091,-0.7671452945015136,-0.009360910863745195,0.3759730284643047,1,-0.07406205556516397,-0.4921061804547514,-0.009522419383253952,-0.02789706395590718,-1,-0.105446978340474,0.001377817064311587,0.00708931017418985,-0.007007180925979009,0.001458932879941821,-1,0.04257753565580179,-0.02230064988065027,-0.003419075660995875,0.4304167909517604,0.01282922484179909,0.01089710033490663,0.09556244344375035,0.3826327023346531,-0.0001178943473181429,-0.2208215797166841,0.0001122920359550808,-0.02476481453755435,-0.009621767005988546,-0.4643904807966903,-0.2178619693328188,0.3017123155204389,0.1516702121464827,-1.042463027393181e-05,0.08418266238032895,0.5678489327174867,-0.245881431129467,0.007494526080670157,-0.6314008810803258,0.05315693935921909,-0.3235103662350498,-0.02793425409719055,0.0001691620208095626,0.02457731009108299,-0.01238542736865296,-0.003118633121622484,-0.4953670347920039,0.001567393633777592,0.002416267560675624,-0.6547604512220331,-0.008467262906481657,0.4640713439669227,-0.007709962259658696,-0.006819311975831036,0.2166233700740688,-1,-0.02175486644191728,0.1901747670782824,-0.01155333015481427,0.1585088032778839,0.09920603676216744,-0.2304558955081126,0.09983891065365191,-0.00091406270017472,-0.1437361459785151,0.1223896658133678,0.5224557745154498,-0.02998340644424675,-0.3815181663939539,-0.03385021108455265,-0.6428680446790508,0.4787909807772883,0.3606601313000725,0.5543171302142915,0.03621561353708664,-1,-0.1064520833177242,0.1754345760011701,0.001343251427903991,0.2030880554590097,-0.0007454014596831164,-0.005415418517574569,-0.0004207543633798648,-0.0137712351523207,-0.7224193656259444,1,-0.604022736277437,1,0.06821688391133263,-0.3740823859309354,-0.07695402189774071,0.3120353109970172,0.1036523671269646,0.05195395312869323,-0.3432184029199589,-0.6495034915657572,-0.003250386580901823,1,-0.007271556722804513,0.0482848116945854,1,-1,5.313460474388475e-05,-0.03380455516638373,-0.3210737623981119,-0.008981838223390855,0.1298599868713524,-0.003126002209406074,-0.4585968130876106,0.01792157965491929,-0.5158307399869129,0.01657433998244305,0.007275586267785958,-0.09305936560690505,0.008191829027351303,0.9947401708769461,0.08185867832148491],[2,10,2,0.6061317091869017,-0.09792745295328319,0.004629510559947548,-0.1775007172923988,-0.001611787446633344,0.03334265206688746,0.006460670601024839,-0.01078582392795843,-0.01514879452956281,-0.003187047313003333,0.02369623108685254,-1,0.1029104340612542,-0.7695285316981334,0.003124356747717764,0.0001369224128710738,-0.2358433880705316,0.1655850677120682,1,-0.2266288255721311]]},{"Coords":[1,2,0,0],"Dir":3,"Fitness":163,"Food":0,"Name":[1,5,"MyAnt"],"biases":[1,2,[1,10,-0.6475730508204243,0.8067373418777435,-0.1321194918331189,0.2715611334856254,0.00298363837733369,-0.129435086466263,-0.002620666504211944,8.655822746563112e-05,-0.004526215996622736,0.06221275448553956],[1,2,-0.5611616789133328,1]],"error_threshold":0.001,"learning_rate":0.5,"training_iterations":1000,"weights":[1,2,[2,27,10,0.002897996586283518,-1,-0.07849700548348927,-0.4266228424715176,1,0.009592044220024656,0.4179869324541872,0.008856724823543979,0.3853590237410297,-0.004236377036279184,0.6566538946360088,-0.01671395356155099,-0.07894865437367575,0.3014071013566869,-0.7494382183366805,0.0006575457742770323,-0.4701505806229668,0.1314173106078908,0.2687517935994102,0.1325022174037874,-0.4962018259525694,-0.01500819993309954,0.01375798043730219,-2.364502168719102e-06,-0.005791202973507113,0.782943921506156,0.1231938095149864,0.005337097857272559,1,-0.0004437717554351921,0.004700647445319419,0.4545047181167239,0.04326277535783064,-0.0003866916540022207,-0.01587565079018113,-0.02560778415523557,0.02022557370891701,0.06794794476718839,-0.01382874820387878,-0.1194057877079329,-0.03286446285659097,-0.1216305486176001,-0.03706297531963852,0.05255789408555565,0.05031549463543419,0.1372671491734557,-0.1303516276972543,0.0560399678107802,0.01085498346052116,0.1005553215141681,-0.01075604299928586,-0.1011365860317245,-0.009758572982777521,-1,0.1325372737049454,0.01458757873762364,0.3004105109903973,-0.05698588704932196,0.966859745651258,-0.3039366296668166,-0.09230972226667689,-0.09277558303599051,-0.07354909456950197,0.1270338311554975,-0.7307841318654528,-0.05752206038458265,-1,-0.02469601531338703,0.0006035404585211359,-0.06999810800718916,-0.04682524614626082,0.5977843694382982,-0.2794849207171863,-0.02703774599071756,0.4997558087924445,-0.7064166330199888,-0.02340123520138561,0.3926992116021368,-0.007635483957720815,-0.05177252525090679,1,-0.06879438536429094,-0.2432933583880316,-0.4150095963938321,-0.06418415535359989,-0.318583976125661,0.01584640517052133,-0.7250881915077141,-0.5219225607128828,0.3799831049654339,-1,-0.02488397717824869,-0.001013392115328515,0.1493250014045183,-0.4281575986587175,0.2468018087608312,0.9585470301978724,0.560987457265372,-1,0.01515526661971454,1,0.4496925437331698,0.0877983114071368,-0.0405716025086082,-0.06686650749414519,0.09898213036826382,-0.01431940766282558,0.05860685258193257,0.9185449599267916,0.03754373732254244,-0.008964729271225701,0.6481733009497728,-0.2274117979480028,-0.0095820108378464,1,-0.8429876381541677,0.700102737948701,-0.009067643453273851,-0.2527720595585308,-0.3660852182895359,-0.1863251924662159,-0.00192603469592211,0.540178982292061,0.4298768657407152,-0.2663315287031343,0.05188702817589598,0.2933747203242674,0.008938647160807427,-0.1134077309200408,0.1868441620437637,-0.001006560869065862,-1,0.398354454160917,-0.004554961585702612,-0.0001890459137236478,0.0008501624639934487,0.02730555767502624,1,-0.009072682261662291,0.1438167348812881,0.05590633851802287,-0.01634343006747847,0.4092377806764934,0.001841584709823625,-0.1128525636056205,0.30940561992126,-0.08528801891802246,-0.03194612760579956,-0.006844979787811297,0.694424502214997,0.02833496656197576,0.08846707028052965,-0.9930063972349914,-0.01928030110420091,-0.5298040562787506,0.002893674823061549,0.3759730284643047,1,-0.07406205556516397,-0.4921061804547514,-0.009522419383253952,-0.02789706395590718,-1,-0.105446978340474,-0.002744809711885714,0.00708931017418985,-0.007007180925979009,0.001458932879941821,-1,0.04257753565580179,-0.02230064988065027,-0.003419075660995875,0.4304167909517604,0.01282922484179909,0.01089710033490663,0.09556244344375035,0.3826327023346531,-0.0001178943473181429,0.2963700935830373,-4.98343980053382e-05,-0.02476481453755435,-0.009621767005988546,-0.4643904807966903,0.06801554667800686,0.3017123155204389,0.1516702121464827,-1.042463027393181e-05,0.08418266238032895,0.5678489327174867,-0.245881431129467,0.0007623718646432622,-0.6314008810803258,0.05315693935921909,-0.3235103662350498,-0.009943295843880793,0.0001691620208095626,0.02457731009108299,-0.01238542736865296,-0.003118633121622484,-0.4953670347920039,0.001567393633777592,0.002416267560675624,-0.6547604512220331,-0.01023952568518813,0.4640713439669227,-0.007709962259658696,-0.006819311975831036,0.2166233700740688,-0.4072492741670017,-0.02175486644191728,0.1901747670782824,-0.01155333015481427,0.1585088032778839,0.09920603676216744,-0.2304558955081126,0.09983891065365191,-0.00091406270017472,-0.1437361459785151,0.1223896658133678,0.5224557745154498,-0.006237253201450419,-0.3815181663939539,-0.03385021108455265,-0.6428680446790508,0.4787909807772883,0.7069041503127385,0.5070169117411004,-0.01086685712287572,-1,-0.1064520833177242,0.1754345760011701,0.002506087459043568,-0.009969092821149637,0.001213270834033915,-0.005415418517574569,-0.0004207543633798648,-0.0137712351523207,-0.7224193656259444,1,-0.604022736277437,1,0.06821688391133263,-0.3740823859309354,-0.07695402189774071,0.3120353109970172,-0.06660045192884777,0.05195395312869323,-0.3432184029199589,0.3752557298518696,-0.003250386580901823,1,-0.007271556722804513,0.0482848116945854,1,-1,5.313460474388475e-05,-0.03380455516638373,-0.3210737623981119,-0.008981838223390855,0.02465211875213591,-0.001478767459534823,-0.4585968130876106,0.01792157965491929,-0.5158307399869129,0.01657433998244305,0.007275586267785958,-0.09305936560690505,0.008191829027351303,0.9947401708769461,0.08185867832148491],[2,10,2,0.8711760871795107,-0.09792745295328319,0.004629510559947548,-0.1775007172923988,-0.001611787446633344,0.06250644857084434,0.006460670601024839,-0.01078582392795843,-0.01514879452956281,-0.003187047313003333,0.02369623108685254,-1,0.0194167572622935,-0.7695285316981334,0.003124356747717764,3.240060808281887e-05,-0.4045561060185345,0.1655850677120682,1,-0.2266288255721311]]},{"Coords":[1,2,0,0],"Dir":3,"Fitness":189,"Food":0,"Name":[1,5,"MyAnt"],"biases":[1,2,[1,10,-0.6475730508204243,0.8067373418777435,0.05017123646028306,0.2715611334856254,0.005870428626017116,-0.2247333627810366,0.004035795499070538,8.655822746563112e-05,-0.004526215996622736,0.06221275448553956],[1,2,-0.5611616789133328,1]],"error_threshold":0.001,"learning_rate":0.5,"training_iterations":1000,"weights":[1,2,[2,27,10,0.002897996586283518,-1,-0.07849700548348927,-0.4266228424715176,1,0.01350335528467571,0.4179869324541872,0.008856724823543979,-0.4442006097895749,-0.004236377036279184,-0.2974160949366369,-0.004094101060354721,-0.07894865437367575,0.3014071013566869,-0.7494382183366805,0.0006575457742770323,-0.4701505806229668,0.1314173106078908,0.2687517935994102,0.1325022174037874,-0.4962018259525694,-0.01500819993309954,0.01375798043730219,-2.364502168719102e-06,-0.005791202973507113,0.782943921506156,-0.1498631446853814,0.005337097857272559,1,0.0006189060623867571,0.004700647445319419,0.4545047181167239,0.04326277535783064,-0.0003866916540022207,-0.01587565079018113,-0.02560778415523557,0.02022557370891701,0.06794794476718839,-0.01382874820387878,-0.1194057877079329,-0.03286446285659097,-0.2181092880203407,-0.03706297531963852,-0.09212003861062582,0.05031549463543419,0.1372671491734557,-0.1303516276972543,0.0560399678107802,0.01085498346052116,0.1005553215141681,-0.01075604299928586,-0.1011365860317245,-0.009758572982777521,-0.2007504891924206,0.1325372737049454,0.01458757873762364,0.2751203775085578,-0.05698588704932196,0.966859745651258,-0.3039366296668166,-0.09230972226667689,-0.09277558303599051,-0.07354909456950197,0.1270338311554975,-0.7307841318654528,0.005088963169997646,-1,-0.02469601531338703,0.0006035404585211359,-0.06999810800718916,-0.04682524614626082,0.5977843694382982,-0.2794849207171863,-0.02703774599071756,0.4997558087924445,-0.7064166330199888,-0.02340123520138561,0.3926992116021368,-0.007635483957720815,-0.05177252525090679,1,-0.06879438536429094,-0.2432933583880316,-0.4150095963938321,-0.06418415535359989,-0.318583976125661,0.01584640517052133,-0.7250881915077141,-0.5219225607128828,0.3799831049654339,-1,-0.02488397717824869,-0.001013392115328515,0.1493250014045183,-0.4281575986587175,0.2468018087608312,0.9585470301978724,0.560987457265372,-0.4926928641824433,0.01515526661971454,0.883619524169299,0.4496925437331698,0.0877983114071368,-0.0405716025086082,-0.06686650749414519,0.09898213036826382,-0.01431940766282558,0.05860685258193257,0.9185449599267916,0.03754373732254244,-0.008964729271225701,0.6481733009497728,-0.2274117979480028,0.0174438000435262,1,-0.8429876381541677,0.700102737948701,-0.01719875959802813,-0.2527720595585308,-0.3660852182895359,-0.1863251924662159,-0.00192603469592211,0.540178982292061,0.4298768657407152,0.5187558455784717,0.05188702817589598,0.2933747203242674,-0.007470846832957513,-0.1134077309200408,0.1868441620437637,-0.001006560869065862,-1,0.398354454160917,-0.004554961585702612,-0.0001890459137236478,-0.0006726113389365373,0.02730555767502624,1,0.004972846500335486,0.1438167348812881,0.05590633851802287,-0.01634343006747847,0.4092377806764934,0.001841584709823625,-0.1128525636056205,0.30940561992126,-0.08528801891802246,-0.03194612760579956,-0.006844979787811297,0.694424502214997,0.02833496656197576,0.0766254155852613,-0.9930063972349914,-0.01928030110420091,-0.5298040562787506,0.002893674823061549,-0.5172874134626836,1,-0.07406205556516397,-0.6765330592722133,-0.009522419383253952,-0.02789706395590718,-1,-0.105446978340474,-0.002744809711885714,0.00708931017418985,-0.007007180925979009,0.001458932879941821,0.9895560411441156,0.04257753565580179,-0.02230064988065027,0.003599748525947733,0.4304167909517604,0.01282922484179909,0.01089710033490663,0.09556244344375035,0.5239969966849221,-0.0001178943473181429,0.2963700935830373,-4.98343980053382e-05,-0.02476481453755435,-0.009621767005988546,0.2060131338008312,0.06801554667800686,0.3017123155204389,0.1516702121464827,-1.042463027393181e-05,0.08418266238032895,0.5678489327174867,-0.245881431129467,0.0007623718646432622,-0.6314008810803258,0.05315693935921909,-0.3235103662350498,-0.009943295843880793,0.0001691620208095626,-0.04774806375115966,-5.395535458091295e-05,-0.003118633121622484,-0.4953670347920039,0.001567393633777592,0.002416267560675624,-0.6547604512220331,-0.01023952568518813,0.4640713439669227,-0.007709962259658696,0.003456025279086019,0.2166233700740688,-0.4072492741670017,-0.02175486644191728,0.1901747670782824,-0.01155333015481427,0.1585088032778839,0.09920603676216744,-0.2304558955081126,0.09983891065365191,-0.00091406270017472,-0.1437361459785151,0.04125787964050186,0.5224557745154498,0.007133708525811071,-0.3815181663939539,-0.03385021108455265,-0.6428680446790508,0.812276537637756,0.7069041503127385,0.5070169117411004,-0.01086685712287572,-1,-0.1064520833177242,0.1754345760011701,0.002484848129683176,-0.009969092821149637,0.001213270834033915,-0.005415418517574569,-0.0004207543633798648,-0.0137712351523207,-0.7224193656259444,0.8109305230842137,0.7046678227607222,1,0.06821688391133263,0.356330299051237,-0.07695402189774071,-0.4894168520415854,-0.06660045192884777,0.05195395312869323,-0.3432184029199589,0.3752557298518696,-0.003250386580901823,1,-0.01314752143135371,-0.05677134065878452,1,-1,5.313460474388475e-05,-0.03380455516638373,-0.3210737623981119,-0.008981838223390855,0.02465211875213591,-0.001478767459534823,-0.4585968130876106,0.01792157965491929,-0.5158307399869129,0.01657433998244305,-0.01245734509553551,-0.09305936560690505,0.008191829027351303,0.9947401708769461,0.08185867832148491],[2,10,2,0.1279956865409931,-0.09792745295328319,0.0001982210399322351,-0.1775007172923988,0.0001248387570617133,0.06250644857084434,0.006460670601024839,-0.01078582392795843,-0.01514879452956281,-0.003187047313003333,0.02369623108685254,-1,0.0194167572622935,-0.7695285316981334,0.003124356747717764,3.240060808281887e-05,0.04996973787805231,0.1655850677120682,1,-0.2266288255721311]]}]
