[1,9,{"Coords":[1,2,0,0],"Dir":3,"Fitness":6,"Food":0,"Name":[1,5,"MyAnt"],"biases":[1,2,[1,10,0.2728576593544105,0.7369763068231572,0.3220602244313551,-0.7324214468727479,-0.07227275931224031,-0.4633966467424993,0.384901291127395,0.009293346952618853,0.02810649971476908,0.2850100036025316],[1,2,0.9463516991822025,-0.6404818052755916]],"error_threshold":0.001,"learning_rate":0.5,"training_iterations":1000,"weights":[1,2,[2,27,10,0.8463012399295093,-0.8798574365822656,0.8213912366944498,-0.6507679665777786,0.6760591356292946,-0.9381658952393417,0.7834260632863927,0.1751369856368876,0.07442921822300952,0.05812231345689445,-0.5398355893383038,-0.1622380603400619,-0.6992686360144342,0.8645571470551168,-0.3598658513238797,-0.3453720236944415,-0.8885357046551656,0.6407943872591984,-0.6100962579880391,0.8485160243589378,-0.8317634809844814,0.2101606917187533,-0.7442542820225497,0.8782352347044633,0.6798669275814573,0.296734300622391,-0.5056921579347338,0.2806568273353405,-0.4050927626175149,-0.5798103160350194,0.4575754666899068,0.891871463823861,0.5099139829460289,0.4484979666923403,0.565011378587206,0.3326207909886902,-0.2985060204165213,0.8338770631827777,0.1267088689822058,0.2578967281805544,-0.01541318440332584,0.2095146172010629,0.1812742494711339,-0.4172090684538008,-0.377971955622691,0.3116389779152604,-0.07868050153318706,0.247611833198911,-0.1524390673426923,0.5888467496916652,-0.326470710991891,-0.3511430620278337,0.06304597372509257,0.4355967019123936,-0.3634502602698977,0.6826285031168611,-0.2715151850817821,0.4965465336346722,0.3024616445646553,0.1783835721096321,-0.393074393518382,-0.286968660070601,-0.5830619847113316,-0.1449933100924821,-0.9308964497181342,-0.2502173073343663,0.005874168373043664,-0.2175092640489098,-0.6768833017771245,-0.6231047378563004,-0.2958466846871055,0.04109880687954459,0.8675944996865634,-0.06954194657000934,-0.9047599638612895,-0.5146421376650883,-0.7163475490999576,0.4711842335826317,0.01095995266724636,0.5895515196893697,0.4859854461674258,-0.3203634956504591,-0.2194967850339566,-0.5416225918574,-0.8669964001257362,-0.2086332806982545,0.8589497411703346,-0.2163453426338189,-0.1870314016188244,-0.1255527096468521,0.9223763101180202,0.286088656955638,-0.7585553810418777,0.518327514773339,-0.3564609396027965,-0.02935569956440376,0.9921436351841122,-0.8509882561810256,0.08880789225620211,0.7835925174468465,0.08230356245641857,-0.1105729686370409,-0.0292764702430246,-0.8698288369675191,0.9999213290197517,-0.6853021892395355,-0.1591760897470158,0.7156354217645766,0.4104104504981032,-0.3095004821987162,-0.3016846864794374,-0.378214717042191,-0.5845273637618542,0.3520349705149186,-0.07994097705262582,0.8823937545340332,-0.7428594216739548,-0.2242096159463116,-0.1909137777506935,-0.3174359672363722,0.2545565327100865,0.07131078576045868,0.4747534461893947,0.4765008136972122,-0.5719618217224223,0.767105259606937,-0.6802281430564483,0.8049418574014269,-0.04568794009502741,-0.609333506102862,-0.2209898475709575,-0.7015760587843121,0.6553243760797109,0.9420169608873501,0.2812725680951365,0.4173872333232065,0.8495288107150583,-0.849872840027684,-0.4844882179230601,0.3415407575958282,0.5587445103506197,-0.4166598333789542,0.1278710926692328,-0.9774962701942467,-0.6314883208380839,0.3199240205784408,-0.1426369925711757,-0.9169502777811551,-0.572718453877078,0.7103149346367494,0.6144720177557039,0.6128279675637989,0.5525944553225031,-0.6741282771174932,0.3756761005959695,0.5660008842258708,-0.4365525836186357,-0.7292792070382437,-0.4785414579959009,0.6933051564356829,0.7846339327026806,0.7106128240828682,-0.1026881075115897,0.2027556153360217,0.9043119777748336,-0.1356434083457285,0.185917435988874,-0.797305329878532,0.008960648269208837,-0.02333830275702709,-0.2076441766442072,0.6760514777706661,-0.7419544569098921,-0.3676184308297989,-0.6925673542377122,0.3366321330524535,0.3187315668014483,-0.6151234773093333,-0.9074794846101348,-0.216452309737565,-0.3646085247397395,-0.03266291166809299,0.1943207708349968,0.517322649514256,0.9324018675054602,0.4598711185765574,-0.6193412261244784,0.8411077512084548,0.2941368118677554,-0.2109697543042988,0.1843532544340374,0.5345431800940521,0.6763301169823219,0.376071701906511,0.0170729708181232,0.6789231168197289,-0.3596300990826322,0.478367302195436,-0.6927014450738678,-0.6731615125098969,0.5958744268094855,-0.6451385157066125,0.9426261166088594,-0.4056988560208425,0.1422864570332296,0.6400227007611445,0.4816898771734157,0.9259281070114989,-0.09958531028603912,-0.8800946375673424,-0.2870910261095798,0.3606769627008133,-0.1688537231315348,-0.9676762373627834,-0.0905438590040355,-0.2038747271013783,-0.1711141465959412,-0.138083181056601,-0.1096636638766919,0.811719719089006,-0.7968849633454254,-0.755705427837688,-0.06274073024370641,0.08429898656614676,0.3197922982863235,-0.7570297934919104,-0.7948043171149426,0.9083915411562244,0.6438705086559617,-0.07937537484866364,-0.8446728490911368,0.4482168974698715,0.06702862844807789,-0.419382709392796,0.8893455993972117,0.1608720065967966,-0.6037813918296175,-0.3673674981811732,-0.4481017382838657,-0.1200604506324001,-0.4410931069916983,-0.9265062615775721,0.7160429046540695,0.2221137351085709,-0.7835767693599742,0.8726795261814069,0.2526137036671858,0.2821205764571644,-0.6201516392337243,0.06546548371160887,-0.4368699358071868,-0.697934582409242,-0.4245045060285915,0.0940812056902709,0.2136429448171719,0.4633394362993706,0.9547366912538322,-0.2380147608437324,-0.5739175535541923,-0.1115384273457132,0.5961017530682502,0.1410348833819686,-0.06267254105490427,0.5854319685362219,-0.1892917730878756,0.5300352685664789,0.5837778364416939,0.08352076993761348,0.9115595333578346,0.7122202428605442],[2,10,2,0.2949893557132583,0.1760657479273637,-0.5624607734037388,-0.1003253840978304,0.3834281915692366,0.3165496555895573,0.6674903621019228,0.06620461040194381,0.289247936099857,-0.5003455381556077,-0.7074439347647428,-0.553463574994937,0.5936220740761449,-0.343002708748622,0.8650979672084167,0.6015952575392618,0.2665503969557836,-0.5208983430008998,0.8735153785833403,-0.2332333457323912]]},{"Coords":[1,2,0,0],"Dir":3,"Fitness":41,"Food":0,"Name":[1,5,"MyAnt"],"biases":[1,2,[1,10,-1,-0.4576728663549525,0.3220602244313551,1,-0.07227275931224031,-0.4633966467424993,0.384901291127395,0.01453363965487508,0.02810649971476908,0.2850100036025316],[1,2,0.9463516991822025,0.06663974324996555]],"error_threshold":0.001,"learning_rate":0.5,"training_iterations":1000,"weights":[1,2,[2,27,10,-1,-0.8798574365822656,0.3269272068477251,-0.6507679665777786,-0.1580647064970622,-0.9381658952393417,0.04224702285572842,-0.1179782819369828,0.07442921822300952,0.05812231345689445,-0.5398355893383038,0.2187393565765619,-0.6992686360144342,0.8645571470551168,-0.3598658513238797,-0.7081743403025602,-0.8885357046551656,0.6407943872591984,-0.6100962579880391,1,-0.8317634809844814,0.2101606917187533,-0.7442542820225497,-0.5292589147689091,-0.7362683924818302,-0.3791408104355156,-0.5056921579347338,0.5011006937934535,-0.4050927626175149,-0.5805728518116767,0.4575754666899068,0.891871463823861,-0.8261603088220859,0.4484979666923403,-0.7993483645192582,0.3326207909886902,-0.7891051687351538,-0.7631339313386599,0.1267088689822058,0.2793119578483961,-0.01541318440332584,0.2095146172010629,-0.2013181953821568,-0.4172090684538008,-0.377971955622691,0.3116389779152604,-0.1406264426138031,-0.03251146752437239,-0.3084616615848595,0.5888467496916652,0.1811581182325773,-0.3511430620278337,0.06304597372509257,0.4355967019123936,-0.3634502602698977,0.6826285031168611,-0.2715151850817821,0.5249766458283025,0.1250949727224601,0.1783835721096321,-0.393074393518382,0.7550781170477477,0.2717667337934704,-0.1449933100924821,0.7378206191767387,-0.2502173073343663,0.005874168373043664,-0.000894501787101988,-0.6768833017771245,-0.6231047378563004,-0.2958466846871055,-0.07229236898964476,1,-0.06954194657000934,-0.9047599638612895,-0.5146421376650883,0.5556759065740905,0.4711842335826317,0.01095995266724636,-0.6083339495216011,-1,-0.05049120760560152,-0.1245310857840899,-0.5416225918574,-0.8669964001257362,0.3059458818137072,0.8589497411703346,-0.0003148646107060134,-0.1870314016188244,0.02974095122059454,0.9223763101180202,0.286088656955638,-0.2745730938252199,-0.5559960344021291,-0.3564609396027965,-0.02935569956440376,0.1436336878070746,-0.8509882561810256,0.08880789225620211,0.7835925174468465,-0.03291896857179125,-0.02475201243207013,-0.0292764702430246,-0.8698288369675191,-0.4272592860838817,1,-0.1591760897470158,0.7156354217645766,0.4104104504981032,0.03693702241041932,-0.3016846864794374,-0.378214717042191,-0.6189952533976605,0.317643805009215,-0.07994097705262582,-0.8210046524593857,-0.7428594216739548,0.3357609313294195,-0.1909137777506935,0.0696722272294882,0.2545565327100865,0.07131078576045868,0.4747534461893947,1,-0.5719618217224223,0.767105259606937,-0.1872891657345426,-0.9275672507558974,-0.04568794009502741,-0.1800120777937231,-0.3555841259216678,-0.7015760587843121,0.392292699681797,0.0575887768392876,0.2812725680951365,0.4173872333232065,-0.09250994753103466,-0.849872840027684,-0.4534475813356998,0.9173029940819173,-0.9851456205667838,-0.4166598333789542,0.1278710926692328,-0.9774962701942467,-1,-0.3852909819661624,-0.1426369925711757,-1,0.6970614557591058,0.7103149346367494,-0.1578839103158613,0.03479987294476064,0.7337609200465935,-0.6741282771174932,0.3756761005959695,-0.1323570475576325,-0.4365525836186357,-0.7292792070382437,0.806815664219494,0.6933051564356829,0.7846339327026806,-0.01110244321490467,-0.1026881075115897,0.2027556153360217,-0.1561228999980596,-0.1743125605833384,-0.1843099925718007,-0.797305329878532,0.008960648269208837,-0.02333830275702709,0.2596670787791676,0.6760514777706661,-0.7419544569098921,0.10942525087066,-0.6925673542377122,-0.3308349241180017,0.3187315668014483,-0.6151234773093333,-0.4665738655095841,-0.216452309737565,-0.2269461283942155,-0.03266291166809299,0.1943207708349968,0.1577405590371847,-0.4395371606815288,0.4598711185765574,0.8724233096529145,0.8411077512084548,-0.536450577370791,-0.008796394424066916,0.1843532544340374,0.5345431800940521,0.1825835584035674,0.376071701906511,0.0170729708181232,0.6789231168197289,0.1886376676105742,0.478367302195436,-0.6927014450738678,-0.6731615125098969,0.9976114900048031,0.2151192585399211,0.9426261166088594,0.4169937208794313,-0.7925068370829276,0.8230134440479461,0.2228098726805226,0.9259281070114989,-0.04111894020990049,-0.8800946375673424,-0.2870910261095798,0.3606769627008133,0.2950239629679595,-0.9676762373627834,-0.04918799835584568,0.259544682959859,-0.1711141465959412,-0.2216165286548916,-0.1096636638766919,0.811719719089006,-0.7968849633454254,-0.755705427837688,-0.06274073024370641,-0.01358081148601419,-0.690848357762656,-0.6140640057447874,0.273791696408729,-0.0664026026792183,0.6438705086559617,-0.07937537484866364,-0.8446728490911368,0.4482168974698715,-0.07172153283132784,-0.419382709392796,0.8893455993972117,-0.1806500752335904,-0.6037813918296175,-0.3673674981811732,-0.5152322887446626,-0.1200604506324001,-0.4410931069916983,-0.9265062615775721,0.7160429046540695,0.3539339777269646,-0.7835767693599742,0.8726795261814069,0.163551922497376,0.2821205764571644,-0.6201516392337243,0.1044854156825092,-0.4016945071606854,-0.697934582409242,-0.01663955872967404,0.0940812056902709,0.2136429448171719,1,-0.4066686367924983,-0.1255311566135253,-0.5739175535541923,-0.1115384273457132,0.5961017530682502,0.1410348833819686,-0.06267254105490427,0.5854319685362219,0.8397730326212163,-0.4666407356476724,-0.7326536579364251,-0.09508918731856361,-0.1130954736850137,-0.3684527333050255],[2,10,2,-0.6904042305006145,-0.02259224455755412,-0.5624607734037388,-0.03978346966251018,0.3834281915692366,0.3165496555895573,0.6674903621019228,0.06620461040194381,0.289247936099857,-0.3206820392996688,-0.7074439347647428,-0.553463574994937,0.5936220740761449,0.4668833466301021,-0.7234651024328997,-0.1912869300990184,-0.2136132674502498,-0.5208983430008998,-1,-0.2332333457323912]]},{"Coords":[1,2,0,0],"Dir":3,"Fitness":48,"Food":0,"Name":[1,5,"MyAnt"],"biases":[1,2,[1,10,-1,-0.4576728663549525,0.3220602244313551,1,-0.07227275931224031,-0.4633966467424993,0.384901291127395,0.01453363965487508,0.02810649971476908,0.4178399238922927],[1,2,0.9463516991822025,0.06663974324996555]],"error_threshold":0.001,"learning_rate":0.5,"training_iterations":1000,"weights":[1,2,[2,27,10,-1,0.864921648136684,0.3269272068477251,-0.6507679665777786,-0.1580647064970622,-0.238186039334929,0.02208022652436942,-0.164987431703153,0.07442921822300952,0.05812231345689445,-0.5398355893383038,0.2187393565765619,0.6000984012712136,-0.6277500321112059,-0.3598658513238797,0.4695008324636706,-1,0.6407943872591984,0.3229725140515808,1,-0.8317634809844814,0.1761249016619796,-0.7442542820225497,-0.5292589147689091,-1,-0.6436718606144607,-0.5056921579347338,0.5011006937934535,-0.4050927626175149,-0.5805728518116767,0.4591678362860639,0.891871463823861,-0.8261603088220859,0.4484979666923403,-0.7993483645192582,0.3326207909886902,-0.7891051687351538,-0.7631339313386599,0.01174729218052165,0.2793119578483961,-0.02924702519884319,0.2095146172010629,-0.2013181953821568,-0.4172090684538008,-0.377971955622691,0.3116389779152604,-0.1406264426138031,-0.03251146752437239,-0.2550603286422301,0.5888467496916652,0.2322418084566495,-0.3511430620278337,-0.07213174598186214,0.4355967019123936,0.6574405257401138,0.6826285031168611,-0.06966617984749511,0.5249766458283025,0.1250949727224601,0.06895945006320374,-0.393074393518382,0.7550781170477477,0.2717667337934704,0.1280999237547241,0.7378206191767387,-0.2502173073343663,-0.01128347578851898,-0.000894501787101988,-1,0.297498406529928,-0.2958466846871055,-0.03047326049577649,1,-0.06954194657000934,-0.9047599638612895,0.7889789076541013,0.5556759065740905,-0.2952717131714423,0.01095995266724636,-1,-1,-0.0009300765052155911,0.1599801083111546,-0.5416225918574,-0.8669964001257362,0.3059458818137072,0.8589497411703346,-0.0003148646107060134,-0.1870314016188244,0.02974095122059454,0.9223763101180202,0.286088656955638,-0.4481424113418827,-0.1426491776427198,-0.3564609396027965,-0.009713076555273183,0.1436336878070746,-0.8509882561810256,0.08880789225620211,0.7835925174468465,0.004997959837459759,-0.02475201243207013,-0.0292764702430246,-0.8698288369675191,-0.4100314601005374,1,-0.1031872428904023,0.7156354217645766,0.4104104504981032,0.03693702241041932,0.1437881902168238,-0.378214717042191,-0.6189952533976605,0.317643805009215,-0.07994097705262582,-0.8210046524593857,-0.7428594216739548,0.3357609313294195,0.09762816760148914,0.0696722272294882,0.2498311185995895,0.07131078576045868,0.08114273682095355,0.4106796885519244,-0.5719618217224223,0.767105259606937,-0.1872891657345426,-1,-0.04568794009502741,-0.1800120777937231,-0.3555841259216678,0.8779877390724381,0.392292699681797,0.0575887768392876,0.4689285227078765,0.4173872333232065,-0.170106513629979,-0.849872840027684,-0.6968599067495487,0.9173029940819173,-0.9718418883410791,-0.4166598333789542,0.01850301166714026,1,0.3205228395856792,-0.6484176841626701,-0.1426369925711757,0.8445214718238083,0.671705625724056,-0.360132295664209,-0.1578839103158613,0.03479987294476064,0.7337609200465935,-0.6741282771174932,0.3756761005959695,-0.02988743224052243,-0.4365525836186357,-0.7292792070382437,0.806815664219494,0.6933051564356829,0.6598624492513496,-0.01110244321490467,-0.1026881075115897,-0.1843162563338535,-0.1561228999980596,-0.1743125605833384,-0.3682473317129021,-0.797305329878532,0.008960648269208837,-0.02333830275702709,-0.06165284601014111,0.6760514777706661,0.562500472918272,0.04923779822128252,-0.6925673542377122,-0.3308349241180017,0.3187315668014483,-0.6151234773093333,-0.8064886716484776,-0.216452309737565,0.02066999281225599,0.001133233533172619,0.1943207708349968,0.1577405590371847,-0.4395371606815288,0.4598711185765574,0.8724233096529145,0.8411077512084548,-0.536450577370791,-0.008796394424066916,-0.3535500047365005,0.5345431800940521,0.1825835584035674,0.376071701906511,0.0170729708181232,0.5514160956440206,0.1886376676105742,0.842579689740539,0.9851717102981904,1,0.9976114900048031,0.2151192585399211,0.2544224059451736,-0.6415229124623205,-0.7925068370829276,0.8230134440479461,0.07962240979893262,0.9259281070114989,-0.04111894020990049,-0.9255074970326033,1,0.3606769627008133,-0.4217149904834423,-1,-0.04918799835584568,-0.4375490862913841,-0.2162932844980315,-0.3319199360759109,-0.1096636638766919,0.811719719089006,-0.7968849633454254,1,-0.06274073024370641,-0.01358081148601419,-0.690848357762656,-0.6140640057447874,0.273791696408729,-0.0664026026792183,0.6438705086559617,-0.1463293773744521,-0.8446728490911368,0.4482168974698715,-0.07172153283132784,-0.419382709392796,0.8893455993972117,-0.08756805152711429,-0.6037813918296175,-0.01633082515644244,-0.5152322887446626,0.2230561968614992,-0.4410931069916983,-0.9265062615775721,0.903987051661253,0.3539339777269646,-0.7835767693599742,0.8726795261814069,-0.2926594708929309,0.2821205764571644,-0.6201516392337243,0.1044854156825092,-0.4016945071606854,-0.697934582409242,-0.01663955872967404,0.0940812056902709,0.2136429448171719,1,0.4665642890564607,-0.1255311566135253,-0.282670693196162,-0.1115384273457132,-0.00390026378962086,0.1410348833819686,-0.0603477310450608,0.5854319685362219,0.8397730326212163,-0.4666407356476724,-0.7326536579364251,-0.09508918731856361,-0.1130954736850137,-0.1924256474472247],[2,10,2,-0.6904042305006145,-0.03547948401400964,-0.5624607734037388,-0.03978346966251018,0.3834281915692366,0.3165496555895573,0.3264882353091239,0.06620461040194381,0.289247936099857,-0.3206820392996688,-0.3226268453638928,-0.553463574994937,0.5936220740761449,-0.2956505335700939,-0.7234651024328997,-0.1951060017769946,-0.2136132674502498,-0.435464406718825,-1,-0.2332333457323912]]},{"Coords":[1,2,0,0],"Dir":3,"Fitness":54,"Food":0,"Name":[1,5,"MyAnt"],"biases":[1,2,[1,10,-0.207357408729727,0.176658774231966,-0.8060238844768904,-0.4395100249212622,-0.07227275931224031,0.5686445989893065,0.384901291127395,0.01453363965487508,-0.02022557806800638,0.4178399238922927],[1,2,-1,0.06663974324996555]],"error_threshold":0.001,"learning_rate":0.5,"training_iterations":1000,"weights":[1,2,[2,27,10,-1,0.3263878081946469,0.3269272068477251,-0.6507679665777786,-0.1580647064970622,0.3245189840771853,0.02208022652436942,-0.0121336552268239,0.07442921822300952,0.05812231345689445,-0.5398355893383038,0.2183286077268994,0.6000984012712136,-0.6277500321112059,-0.3598658513238797,0.4695008324636706,1,-1,0.3229725140515808,1,0.6829227352693953,0.1761249016619796,-0.7442542820225497,0.7970800210414563,0.6771940690596749,-0.6436718606144607,-0.5056921579347338,0.5011006937934535,-0.792950806521002,-0.5805728518116767,0.02437820383252343,0.891871463823861,-0.8261603088220859,-0.0333191606878989,-0.7993483645192582,-0.5139567190476608,-0.7891051687351538,-0.9306410385162626,0.0009597829878352222,0.2793119578483961,-0.02924702519884319,0.2095146172010629,-0.2013181953821568,0.6988121561734851,-0.377971955622691,0.06041430702426723,-0.1406264426138031,-0.02660536616510859,-0.4575552203510115,-0.1995973451765674,0.2322418084566495,-0.3511430620278337,-0.07213174598186214,0.004962446774632011,0.6574405257401138,0.6826285031168611,-0.01392898917160041,0.5249766458283025,0.1250949727224601,0.06895945006320374,-0.3398645781389187,0.7550781170477477,0.2717667337934704,0.1280999237547241,0.7378206191767387,-0.2441809012792237,-0.01128347578851898,-0.000894501787101988,-1,-0.2425553907418559,-0.2958466846871055,-0.03047326049577649,1,-0.06954194657000934,-0.9047599638612895,0.3660519980271101,0.3816010315633721,0.3592443453370361,0.01095995266724636,-1,-1,-0.0009300765052155911,0.1599801083111546,-0.2955395598961831,1,0.1118721143630742,-0.07095545549247982,-0.0003148646107060134,-0.2556597373781623,0.02974095122059454,-0.7731659237421603,0.286088656955638,-0.4481424113418827,-0.1426491776427198,-0.3564609396027965,-0.01306183273168788,0.1436336878070746,-0.8509882561810256,-0.01298963949253992,0.7835925174468465,-0.0008685926809238205,-0.02475201243207013,-0.0292764702430246,-0.8698288369675191,-0.972399727531056,1,-0.06782748825709958,0.7156354217645766,-0.07038572849243588,0.03693702241041932,0.1437881902168238,-0.378214717042191,0.9056592046144041,0.317643805009215,-0.07994097705262582,-0.8210046524593857,1,0.3357609313294195,0.09762816760148914,0.0696722272294882,0.08692789254944862,0.1153047030299977,0.02495961664074133,0.1808614274314037,-0.5719618217224223,0.4135355488610759,-0.1872891657345426,1,-0.04568794009502741,0.05489295957633249,-0.3555841259216678,0.8779877390724381,0.4142626572596282,0.0575887768392876,-0.3087872709504456,0.4173872333232065,0.01453340350830603,-1,0.775919000227802,-1,-0.9718418883410791,0.1157463517235107,0.01850301166714026,1,0.3205228395856792,-0.6484176841626701,0.03435102916485881,0.07514266240863043,0.671705625724056,-0.360132295664209,-0.1578839103158613,0.0280969765179852,0.7337609200465935,-0.6741282771174932,0.3756761005959695,-0.02988743224052243,-0.4365525836186357,0.2934596266626332,0.806815664219494,0.6933051564356829,0.2025281230545403,-0.01110244321490467,-0.1026881075115897,-0.1843162563338535,-0.1713002079717895,-0.1743125605833384,-0.3682473317129021,0.1784644015759537,0.008960648269208837,-0.03470964316741123,0.09206296160252107,0.6760514777706661,0.562500472918272,0.01175723384219518,0.954084134486457,-0.3308349241180017,0.2006312777239246,-0.9968867574821657,-0.8064886716484776,0.3723041651266212,5.728725901870312e-05,0.001133233533172619,0.1943207708349968,0.1577405590371847,-0.4395371606815288,0.4598711185765574,0.8724233096529145,0.8411077512084548,-0.536450577370791,-0.008796394424066916,-0.3535500047365005,0.06361819990660948,0.1825835584035674,0.376071701906511,-0.009075657908850685,-0.2515227154457673,0.1886376676105742,0.842579689740539,0.9851717102981904,1,0.3654590964848676,-0.4154968725992526,0.00436045393855546,-0.6415229124623205,-0.9096477501334813,0.8230134440479461,-0.1087593299146799,0.9259281070114989,-0.04111894020990049,-0.9255074970326033,1,0.3606769627008133,-0.2322075652591239,-1,-0.02168141648236121,-0.4375490862913841,0.3718994419205616,0.1964802870273371,-0.1096636638766919,0.811719719089006,-0.7968849633454254,-1,-0.06274073024370641,-0.01155848153565638,-0.690848357762656,-0.6140640057447874,0.273791696408729,-0.0664026026792183,0.6438705086559617,-0.1463293773744521,0.8131944011386988,0.4482168974698715,0.05709520834000716,-0.419382709392796,0.8893455993972117,0.09254796474436267,-0.1228769596857471,-0.01633082515644244,0.7068534614089169,0.1478807532382213,-0.6615650395171419,-1,0.903987051661253,0.3539339777269646,0.3339782440368926,-0.4301744774939689,-0.2926594708929309,0.2821205764571644,-0.6201516392337243,-0.1423220389016427,-0.4016945071606854,0.05126244048324913,-0.01663955872967404,0.0940812056902709,0.1003555674875936,1,0.4665642890564607,-0.1255311566135253,-0.1549383093123521,-0.161315412484249,-0.00390026378962086,0.1410348833819686,-0.0603477310450608,0.5854319685362219,1,-0.4666407356476724,0.2896728339846602,-0.1579257832688498,-0.1130954736850137,0.1992172380122955],[2,10,2,-0.6904042305006145,-0.03547948401400964,-0.5624607734037388,-0.03978346966251018,0.04701417901847281,0.3165496555895573,0.3264882353091239,-0.07578150423695898,0.1192149853252548,-0.3206820392996688,0.07002713614259724,0.1226237182932341,0.5936220740761449,0.1167207867714808,0.9981504478839134,-0.1951060017769946,-0.2136132674502498,-0.492812401823324,1,-0.2332333457323912]]},{"Coords":[1,2,0,0],"Dir":3,"Fitness":71,"Food":0,"Name":[1,5,"MyAnt"],"biases":[1,2,[1,10,-0.207357408729727,-0.2681741066664596,-0.8060238844768904,-0.4395100249212622,-0.06770043681768097,0.5686445989893065,0.384901291127395,0.01453363965487508,-0.02022557806800638,0.4178399238922927],[1,2,-1,0.06663974324996555]],"error_threshold":0.001,"learning_rate":0.5,"training_iterations":1000,"weights":[1,2,[2,27,10,-1,0.3263878081946469,-0.5746299174171766,-0.6507679665777786,-0.1580647064970622,0.3245189840771853,0.02208022652436942,-0.0121336552268239,0.07388324404899518,0.05812231345689445,0.6330168337736432,0.2183286077268994,0.8355746404768771,-0.6277500321112059,-0.3598658513238797,0.4695008324636706,1,-0.2947223607797818,0.3229725140515808,1,0.6829227352693953,0.1761249016619796,-1,0.7970800210414563,0.7674841380152262,-0.6436718606144607,-0.5056921579347338,0.5011006937934535,-0.3432852853347427,-0.5805728518116767,0.02437820383252343,0.891871463823861,-0.8261603088220859,-0.0333191606878989,1,-0.5139567190476608,-0.7891051687351538,-0.9306410385162626,0.0009597829878352222,0.2793119578483961,-0.01868840414744791,0.2095146172010629,0.03522780292986647,0.6988121561734851,-0.377971955622691,0.06041430702426723,-0.1406264426138031,-0.02660536616510859,-0.2719189010602305,-0.1995973451765674,0.2322418084566495,-0.3511430620278337,-0.07213174598186214,-7.202559477088299e-05,-0.6164481477505466,0.6826285031168611,-0.01392898917160041,0.5249766458283025,0.1250949727224601,0.06895945006320374,-0.3398645781389187,0.7550781170477477,-0.100382531536061,0.1280999237547241,-0.499525944590274,-0.2706381032715241,-0.01324297342747128,-0.000894501787101988,-1,-0.2425553907418559,-0.2958466846871055,-0.03047326049577649,1,-0.06954194657000934,-0.7137558298996315,0.3660519980271101,0.3816010315633721,0.3592443453370361,0.01095995266724636,-1,0.1390161621529455,-0.0009300765052155911,0.1599801083111546,-0.2955395598961831,1,0.1118721143630742,-0.07095545549247982,-0.0003148646107060134,-0.2556597373781623,0.02974095122059454,-0.7731659237421603,0.286088656955638,0.4688233542452709,-0.1426491776427198,0.4838136581071215,-0.01306183273168788,0.1436336878070746,-0.8509882561810256,-0.01298963949253992,0.7835925174468465,-0.0008685926809238205,-0.02475201243207013,-0.0292764702430246,-0.8698288369675191,-0.972399727531056,1,-0.06782748825709958,-1,0.02429431459845124,0.02492071309459654,0.2737786050460019,-0.378214717042191,0.9056592046144041,0.317643805009215,-0.07994097705262582,-0.8210046524593857,1,0.3357609313294195,0.09762816760148914,-0.002590259932024736,-0.1407478493980719,0.1153047030299977,0.02495961664074133,0.1808614274314037,-0.5719618217224223,0.4135355488610759,0.1090536752764486,1,-0.07224743587738511,0.05489295957633249,-0.3555841259216678,1,0.4142626572596282,0.0575887768392876,0.1543223983869182,-0.3828717673827908,0.009600644299635832,1,0.775919000227802,-1,0.5211098031528835,0.1157463517235107,0.01850301166714026,1,0.04320753091115223,-0.6484176841626701,0.03435102916485881,0.07514266240863043,0.671705625724056,-0.360132295664209,-0.035570894458687,0.0280969765179852,0.7337609200465935,-0.6741282771174932,0.3756761005959695,-0.02988743224052243,-0.4365525836186357,0.2934596266626332,0.806815664219494,0.6933051564356829,0.2025281230545403,-0.01110244321490467,-0.1026881075115897,-0.2162530326026145,-0.1607793666364162,-0.1743125605833384,0.6908322249302934,0.1784644015759537,0.006444705386376631,-0.03470964316741123,0.09206296160252107,0.6760514777706661,0.562500472918272,0.01175723384219518,-1,-0.3308349241180017,0.2006312777239246,-0.9968867574821657,-0.8064886716484776,0.3723041651266212,5.728725901870312e-05,0.001133233533172619,0.1943207708349968,0.0003344513145164824,-0.4395371606815288,0.4598711185765574,-1,0.8411077512084548,-0.536450577370791,-0.003355339398045474,-0.3535500047365005,0.06361819990660948,0.1825835584035674,0.376071701906511,-0.009075657908850685,-0.2688697198796889,0.1886376676105742,0.842579689740539,0.277271475027792,1,0.3654590964848676,-0.4154968725992526,0.00436045393855546,-0.6415229124623205,-0.9096477501334813,0.8230134440479461,-0.1087593299146799,-0.151152997828306,-0.04111894020990049,-1,1,0.3606769627008133,-0.2322075652591239,-1,0.01733958896101897,-0.4375490862913841,0.3718994419205616,0.1964802870273371,-0.1096636638766919,0.811719719089006,-0.5815154493242957,1,-0.06274073024370641,-0.01155848153565638,-0.1007049615969763,-0.6140640057447874,0.273791696408729,-0.0664026026792183,0.6438705086559617,-0.1463293773744521,0.8131944011386988,0.4482168974698715,0.05709520834000716,-0.419382709392796,0.8893455993972117,0.09254796474436267,-0.237576610910985,-0.01633082515644244,0.7068534614089169,0.2370669816047492,-0.6615650395171419,-1,0.903987051661253,-0.5331191733695342,0.3339782440368926,0.4855201868811427,-0.2926594708929309,0.2821205764571644,-0.02729891014474059,-0.1423220389016427,-0.6011650476106413,0.05126244048324913,-0.01663955872967404,0.0940812056902709,0.1003555674875936,1,0.4665642890564607,-0.1255311566135253,-0.1549383093123521,-0.1825040335703715,-0.00390026378962086,-0.2490673799849786,-0.03372048834279943,0.5854319685362219,1,-0.4666407356476724,0.2896728339846602,-0.1579257832688498,-0.1130954736850137,0.1992172380122955],[2,10,2,-0.6904042305006145,-0.03547948401400964,-0.5624607734037388,-0.03978346966251018,0.04701417901847281,0.3165496555895573,0.3264882353091239,-0.07578150423695898,0.04580074900867986,-0.3206820392996688,0.07002713614259724,0.1226237182932341,0.5936220740761449,0.1167207867714808,0.9981504478839134,-0.1951060017769946,0.2019456461167346,-0.492812401823324,1,-0.2332333457323912]]},{"Coords":[1,2,0,0],"Dir":3,"Fitness":83,"Food":0,"Name":[1,5,"MyAnt"],"biases":[1,2,[1,10,-0.207357408729727,-0.2681741066664596,-0.2583955605909417,-0.6109725335413361,-0.05262396735019031,0.5686445989893065,-0.5481499503160644,0.01453363965487508,-0.02022557806800638,0.4178399238922927],[1,2,-1,0.06663974324996555]],"error_threshold":0.001,"learning_rate":0.5,"training_iterations":1000,"weights":[1,2,[2,27,10,-1,0.3263878081946469,-0.5746299174171766,-0.85806130668284,-0.1580647064970622,0.3245189840771853,0.02208022652436942,-0.01131191229747623,0.07388324404899518,0.05812231345689445,0.6330168337736432,0.2183286077268994,0.8355746404768771,-0.6277500321112059,-0.3598658513238797,0.4695008324636706,1,0.01810215957262017,-0.2093558348808024,1,0.6829227352693953,0.1761249016619796,-1,0.7970800210414563,0.7674841380152262,-0.6436718606144607,-0.5056921579347338,0.5011006937934535,-0.3432852853347427,-0.5805728518116767,0.03146493323747587,0.891871463823861,-0.8261603088220859,-0.0333191606878989,1,-0.5139567190476608,-0.7891051687351538,-0.9306410385162626,0.0009597829878352222,0.2793119578483961,-0.01868840414744791,0.2095146172010629,0.03522780292986647,0.6988121561734851,-0.381618732233954,0.06041430702426723,-0.1406264426138031,-0.02660536616510859,0.4166278493360638,-0.1995973451765674,0.2805364149259794,-0.3511430620278337,-0.07213174598186214,-2.822202103826574e-05,-0.6164481477505466,0.6826285031168611,-0.01392898917160041,0.5249766458283025,0.2272649487424255,0.06895945006320374,-0.3398645781389187,0.7550781170477477,-0.100382531536061,0.1280999237547241,-0.499525944590274,-0.2706381032715241,-0.01324297342747128,-0.000894501787101988,0.4186311037743526,-0.2425553907418559,-0.2958466846871055,-0.03047326049577649,1,-0.06954194657000934,-0.7137558298996315,0.3660519980271101,0.3816010315633721,-0.3095495912810892,-0.01501690621639537,-1,0.1390161621529455,-0.0009300765052155911,-0.1878031655505627,0.3949712377260352,1,0.1118721143630742,-0.01292665264903224,-0.0003148646107060134,-0.2556597373781623,-0.0039586336624148,-0.7731659237421603,-0.4726893603049702,0.09967242290685224,-0.1426491776427198,-0.6153650558103151,-0.01306183273168788,0.1436336878070746,-0.8509882561810256,-0.01298963949253992,0.7835925174468465,-0.0008685926809238205,-0.02475201243207013,-0.0292764702430246,-0.8698288369675191,-0.972399727531056,1,-0.06782748825709958,-1,0.02429431459845124,-0.02435172534118425,0.2737786050460019,-0.378214717042191,0.9056592046144041,0.317643805009215,-0.07994097705262582,-0.8210046524593857,1,0.3357609313294195,0.0281577171087915,-0.002590259932024736,-0.1407478493980719,0.1153047030299977,0.03605413548973033,0.1808614274314037,-0.5719618217224223,-0.5066363066798264,0.1090536752764486,1,-0.07224743587738511,0.05489295957633249,-0.3555841259216678,-0.791555370300387,0.4142626572596282,0.0575887768392876,0.0779777825266434,-0.3828717673827908,0.009600644299635832,1,-1,-1,0.5285759613786607,0.1157463517235107,0.01850301166714026,1,0.04320753091115223,-0.6484176841626701,-0.008470232224398699,-0.1235300038767868,0.671705625724056,0.5360354342772164,-0.035570894458687,0.0280969765179852,0.7337609200465935,1,-0.4610792857670864,-0.02988743224052243,-0.4365525836186357,0.2934596266626332,1,0.6933051564356829,-0.3099347129859472,-0.01110244321490467,0.1453856183829596,-0.2162530326026145,0.07353780772950291,-0.1743125605833384,0.6908322249302934,0.1784644015759537,0.006444705386376631,-0.03470964316741123,0.09206296160252107,0.6760514777706661,0.562500472918272,0.01175723384219518,-1,-0.3308349241180017,0.2006312777239246,-0.9968867574821657,-0.8064886716484776,0.3723041651266212,5.728725901870312e-05,0.001133233533172619,0.1943207708349968,0.0003344513145164824,0.7446349674830588,0.4598711185765574,-1,-0.9351822201721413,-0.536450577370791,-0.003355339398045474,-0.3535500047365005,-0.1210527491780725,0.1825835584035674,0.376071701906511,-0.009075657908850685,-0.2688697198796889,0.1886376676105742,0.842579689740539,0.4531695698536068,1,-0.07706925026431505,-0.4154968725992526,0.00436045393855546,0.9750515460470542,-0.9096477501334813,0.8230134440479461,-0.03080950379105524,-0.151152997828306,-0.04111894020990049,-1,1,0.6863901787498292,-0.2322075652591239,-1,0.01733958896101897,-0.4375490862913841,0.3718994419205616,0.1964802870273371,-0.1096636638766919,-1,0.1220834421823808,1,-0.06274073024370641,-0.01155848153565638,-0.1007049615969763,-0.6140640057447874,0.273791696408729,-0.1000815461559344,0.6438705086559617,-0.1463293773744521,-1,0.4482168974698715,0.05709520834000716,-0.419382709392796,0.8893455993972117,0.09254796474436267,-0.237576610910985,-0.01633082515644244,0.7068534614089169,-0.05230264303985091,-0.6615650395171419,-1,0.903987051661253,-0.5331191733695342,-0.2943219889592905,0.4855201868811427,-0.1744758311941686,0.2821205764571644,-0.02729891014474059,-0.1423220389016427,-0.5825500679522495,0.05126244048324913,-0.01663955872967404,0.0940812056902709,-0.04219064779254911,1,0.4665642890564607,-0.1255311566135253,-0.1549383093123521,-0.1825040335703715,-0.00390026378962086,-0.2490673799849786,-0.03372048834279943,0.5568475483905164,-1,-0.4666407356476724,0.2896728339846602,-0.1579257832688498,0.222158078161647,0.1992172380122955],[2,10,2,-0.6904042305006145,-0.03547948401400964,-0.5624607734037388,-0.03978346966251018,0.04701417901847281,0.3165496555895573,0.3264882353091239,-0.07578150423695898,0.04580074900867986,0.5001370119345427,0.07002713614259724,-0.09472103582452433,0.5936220740761449,0.03669786629934994,0.9981504478839134,-0.1951060017769946,0.2019456461167346,-0.492812401823324,1,-0.4384944805446886]]},{"Coords":[1,2,0,0],"Dir":3,"Fitness":103,"Food":0,"Name":[1,5,"MyAnt"],"biases":[1,2,[1,10,-0.207357408729727,-0.2681741066664596,-0.06223351287902788,-0.6109725335413361,-0.05262396735019031,0.5686445989893065,-0.07770845688964034,0.01453363965487508,-0.02022557806800638,0.4178399238922927],[1,2,-1,0.05525717082584319]],"error_threshold":0.001,"learning_rate":0.5,"training_iterations":1000,"weights":[1,2,[2,27,10,-0.3238186899674305,0.2483493459233301,-0.5746299174171766,-0.85806130668284,-0.1127499412916281,0.3245189840771853,0.02208022652436942,-0.00675894747446699,0.07388324404899518,0.05812231345689445,-0.6155656962006955,0.2703011747363309,0.8355746404768771,-0.6277500321112059,0.1538173555760944,0.4695008324636706,1,0.01810215957262017,0.07245459011866368,1,-0.6769366920491047,0.3306525550561411,-0.4935292815752175,0.7970800210414563,0.7674841380152262,-0.6436718606144607,0.1735121759744756,0.5011006937934535,-0.3432852853347427,-0.5805728518116767,0.03146493323747587,0.891871463823861,-0.8261603088220859,-0.02457470602794826,-0.4446661938865435,-0.5139567190476608,-0.7891051687351538,-0.9306410385162626,0.0009597829878352222,0.2793119578483961,-0.01868840414744791,0.2095146172010629,0.03522780292986647,-0.9265570037205714,-0.381618732233954,-0.02423564646304851,0.05646283405870057,0.007631128150438258,0.4166278493360638,-0.1995973451765674,0.2805364149259794,-0.3511430620278337,-0.07213174598186214,-2.822202103826574e-05,0.05008462286975214,-0.2802462573414025,-0.01392898917160041,0.4648288786298145,0.2272649487424255,0.06895945006320374,-0.3729719610257312,0.7550781170477477,0.180570357141672,0.1280999237547241,-0.1109299719845853,-0.2706381032715241,0.01059778161132589,-0.000894501787101988,0.4186311037743526,-0.2425553907418559,-0.2958466846871055,-0.02198926444796588,1,-0.06954194657000934,-1,0.2259419983413859,0.3816010315633721,-0.5228240791999494,-0.01501690621639537,-1,0.1390161621529455,0.0009743849943640526,-0.1878031655505627,0.3949712377260352,1,0.09604855501959646,-0.01292665264903224,-0.0003148646107060134,-0.1072240790038885,-0.007739876506198546,-0.06409021341597959,-0.4726893603049702,0.09967242290685224,-0.1426491776427198,-0.6153650558103151,-0.02222713271598665,0.02855562609775456,0.9190651803640717,-0.01298963949253992,-1,-0.0008685926809238205,-0.02475201243207013,-0.0292764702430246,0.3240239188677129,-0.378351644534589,1,-0.06782748825709958,-1,0.02429431459845124,-0.02435172534118425,0.07091246453591372,-0.3817023774469734,0.9056592046144041,0.317643805009215,0.06069565311568827,-0.8210046524593857,0.1409469621608088,0.6574007537314157,0.0175968700536744,0.002953795258297893,0.007487576300424248,0.1153047030299977,0.0632753487839261,-0.02394292721008803,-0.5719618217224223,-0.5066363066798264,0.1090536752764486,1,-0.07224743587738511,0.05489295957633249,-0.3555841259216678,-0.791555370300387,0.4142626572596282,0.0575887768392876,0.2139626523706667,0.5832217099371967,0.01621106739063147,-0.8989287605874092,0.07633200149292962,-1,-0.7784950280999945,0.1157463517235107,0.02517279452038683,1,0.04320753091115223,-0.6484176841626701,-0.008470232224398699,-0.1235300038767868,0.671705625724056,0.5360354342772164,-0.05525549234520813,0.0280969765179852,0.7337609200465935,1,-0.4610792857670864,-0.03700723268732666,-0.4365525836186357,0.2934596266626332,1,-0.9070515338794714,0.2133904029891191,0.01924849960609086,0.1453856183829596,-0.2162530326026145,-0.04700482645810275,-0.1743125605833384,0.0848175606366733,0.0398578928673048,-0.008804863135439151,0.03092547521846332,0.04688480236930825,-0.9939998724182544,0.562500472918272,0.01175723384219518,-0.6791870945733254,-0.3308349241180017,-0.2682999565354983,-0.9968867574821657,1,0.3723041651266212,5.728725901870312e-05,0.0004970732231434397,0.1943207708349968,0.0003344513145164824,0.7446349674830588,0.4598711185765574,-1,-0.9351822201721413,0.2071401091925758,-0.0003378715788508689,-0.3535500047365005,0.009684595486198447,0.1825835584035674,0.376071701906511,-0.009075657908850685,-0.2688697198796889,-0.2137857898060951,0.842579689740539,0.4531695698536068,1,-0.07706925026431505,-0.4154968725992526,0.007911341130839083,0.9750515460470542,-0.9096477501334813,-0.009208134179707866,0.007673725840675099,-0.2054234386926333,-0.04111894020990049,-0.4220795590303665,-0.2137728696940697,0.6863901787498292,-0.2322075652591239,-1,0.01733958896101897,0.7959947114309384,0.3718994419205616,0.1964802870273371,-0.1096636638766919,-1,-0.1128624831530301,1,-0.05367289241891897,-0.01155848153565638,0.1344678500953917,-0.6140640057447874,0.273791696408729,-0.002994362129019775,0.6438705086559617,-0.1782966414310149,-1,-0.4200610651130586,-0.05669526114056744,-0.419382709392796,0.2817068038077958,0.09254796474436267,0.2175562465759522,-0.01633082515644244,0.7068534614089169,-0.02350880492983187,-0.6615650395171419,-1,1,-0.3769655492313925,-0.2943219889592905,0.4855201868811427,-0.1744758311941686,0.2821205764571644,-0.02729891014474059,0.2320088747250712,-0.5825500679522495,0.007210934762584868,0.01104208917475318,-0.1539020565605637,-0.04219064779254911,1,0.6345443816893106,0.1593687582732003,-0.1549383093123521,-0.1825040335703715,0.006714220401883665,-0.2490673799849786,-0.03372048834279943,0.5568475483905164,-1,-0.4666407356476724,-0.5123549264054553,-0.1579257832688498,0.222158078161647,0.3039095728780677],[2,10,2,-0.26123216717975,-0.03547948401400964,-0.5624607734037388,-0.03978346966251018,0.04701417901847281,0.3165496555895573,-0.30601580895052,-0.1390237183469251,0.04580074900867986,0.5001370119345427,0.07002713614259724,-0.09472103582452433,0.5936220740761449,0.03669786629934994,0.9981504478839134,-0.1951060017769946,0.2019456461167346,-0.492812401823324,0.9416793819218587,-0.4384944805446886]]},{"Coords":[1,2,0,0],"Dir":3,"Fitness":104,"Food":0,"Name":[1,5,"MyAnt"],"biases":[1,2,[1,10,0.2082309373203592,-0.2681741066664596,-0.06223351287902788,-0.6109725335413361,-0.05262396735019031,0.5686445989893065,-0.07770845688964034,0.01453363965487508,-0.02022557806800638,0.4178399238922927],[1,2,-0.6238989114862492,0.05525717082584319]],"error_threshold":0.001,"learning_rate":0.5,"training_iterations":1000,"weights":[1,2,[2,27,10,-0.3238186899674305,0.2483493459233301,-0.0068426248676832,-0.85806130668284,-0.1127499412916281,-0.3925715303195539,0.02208022652436942,0.01093059230292029,0.07388324404899518,0.05812231345689445,-0.6155656962006955,0.2703011747363309,0.8355746404768771,-0.6277500321112059,0.1538173555760944,0.4534436059413034,1,0.01810215957262017,0.07245459011866368,1,-0.6769366920491047,0.3306525550561411,-0.4935292815752175,0.7970800210414563,1,-0.6436718606144607,0.1735121759744756,0.5011006937934535,0.4965703287008628,-0.5805728518116767,0.03146493323747587,0.891871463823861,-0.8261603088220859,-0.02457470602794826,-0.4446661938865435,-0.5139567190476608,-0.7891051687351538,0.3160497141068737,0.0009597829878352222,0.2793119578483961,-0.01868840414744791,0.2095146172010629,0.02290199721892816,-0.9265570037205714,-0.381618732233954,-0.02423564646304851,0.05646283405870057,0.01321885885388839,0.4166278493360638,-0.1995973451765674,0.2805364149259794,-0.3511430620278337,-0.07213174598186214,-2.822202103826574e-05,0.05008462286975214,-0.2802462573414025,-0.01392898917160041,0.4648288786298145,0.2272649487424255,0.06895945006320374,-0.3729719610257312,0.7550781170477477,0.180570357141672,0.1280999237547241,-0.2070911915974399,-0.2706381032715241,0.01059778161132589,-0.000894501787101988,0.4186311037743526,-0.2425553907418559,-0.2958466846871055,-0.02198926444796588,1,-0.06954194657000934,0.9152335060301398,0.2259419983413859,0.3816010315633721,-0.5228240791999494,-0.01501690621639537,-0.7031630366134185,0.1390161621529455,0.0009743849943640526,-0.1878031655505627,0.3949712377260352,-1,0.09604855501959646,-0.01292665264903224,-0.0003148646107060134,-0.1072240790038885,-0.007739876506198546,-0.06409021341597959,-0.4726893603049702,0.09967242290685224,-0.1426491776427198,-0.6153650558103151,0.01665421797414704,0.02855562609775456,0.9190651803640717,-0.02372473013780762,-1,0.001115190102329103,-0.02831805262683182,-0.0292764702430246,0.09438576425468095,-0.378351644534589,1,0.09146576433992394,-1,0.02429431459845124,-0.02435172534118425,-0.05603783399815408,-0.3817023774469734,0.9056592046144041,-0.5911665399583886,0.06069565311568827,-0.8210046524593857,0.2140506022848815,0.6574007537314157,0.0175968700536744,0.002953795258297893,0.007487576300424248,0.1153047030299977,0.0632753487839261,-0.02394292721008803,-0.5719618217224223,0.4285346318633734,0.1090536752764486,1,-0.07224743587738511,0.05489295957633249,-0.5246955852071793,-0.791555370300387,0.4142626572596282,0.0575887768392876,0.2139626523706667,0.5832217099371967,-0.01575686691167205,-0.8989287605874092,0.07633200149292962,-1,-0.7784950280999945,0.1157463517235107,0.02517279452038683,1,0.03539888055521955,0.5477964757541274,-0.008470232224398699,-0.1235300038767868,0.671705625724056,0.5360354342772164,-0.09661119744651923,-0.05431829037476137,0.7337609200465935,1,0.3045939407401909,-0.03700723268732666,-0.4365525836186357,0.5699627770756353,1,-0.9070515338794714,0.2133904029891191,0.01924849960609086,0.1453856183829596,0.350546318924992,-0.04700482645810275,-0.1743125605833384,0.0848175606366733,0.0398578928673048,-0.008804863135439151,0.03092547521846332,0.01669627427240859,-0.9939998724182544,-0.235491704306054,0.01175723384219518,-0.6791870945733254,-0.5583188399827373,-0.2682999565354983,-0.9968867574821657,1,0.3723041651266212,5.728725901870312e-05,0.0004970732231434397,0.1943207708349968,0.0003344513145164824,0.7446349674830588,-0.135231704965229,-1,-0.9351822201721413,0.2071401091925758,-0.0003996049549091658,-0.3535500047365005,0.009684595486198447,0.1825835584035674,0.376071701906511,-0.009075657908850685,-0.2688697198796889,0.1917759949887267,0.842579689740539,0.4531695698536068,1,-0.07706925026431505,-0.4154968725992526,0.007911341130839083,0.9750515460470542,-0.9096477501334813,0.002175181320289985,0.007673725840675099,-0.2054234386926333,-0.04111894020990049,-0.4220795590303665,-0.2137728696940697,0.6863901787498292,-0.2322075652591239,-1,0.01733958896101897,0.7959947114309384,0.3718994419205616,0.1964802870273371,-0.1096636638766919,1,-0.1128624831530301,1,-0.05367289241891897,-0.01155848153565638,0.1344678500953917,-0.6140640057447874,0.273791696408729,-0.003327222563295027,0.6438705086559617,-0.1782966414310149,-1,-0.4200610651130586,-0.05669526114056744,-0.419382709392796,-0.4009047595847962,0.09254796474436267,0.2175562465759522,-0.0307726278331396,0.7068534614089169,-0.02350880492983187,-0.6615650395171419,-1,1,0.4949568183124204,0.2235451777436461,0.4855201868811427,0.2850132538947159,0.2821205764571644,-0.02729891014474059,0.2320088747250712,-0.5825500679522495,0.007210934762584868,0.01104208917475318,-0.1539020565605637,-0.02458865015944711,1,-0.9560360239969884,0.1593687582732003,-0.1549383093123521,-0.1825040335703715,0.006714220401883665,-0.2490673799849786,-0.03372048834279943,0.5568475483905164,-1,-0.4666407356476724,-0.5123549264054553,-0.1579257832688498,0.222158078161647,0.3039095728780677],[2,10,2,-0.26123216717975,0.008878798244039742,-0.5624607734037388,-0.03978346966251018,0.04701417901847281,0.3165496555895573,-0.30601580895052,-0.1390237183469251,0.04580074900867986,0.3088425755005416,-0.1339189977771787,-0.09472103582452433,0.2713499491507346,0.03669786629934994,0.7576495441554144,0.07965555106752169,0.2019456461167346,-0.492812401823324,0.9416793819218587,-0.4384944805446886]]},{"Coords":[1,2,0,0],"Dir":3,"Fitness":117,"Food":0,"Name":[1,5,"MyAnt"],"biases":[1,2,[1,10,0.2082309373203592,-0.2681741066664596,-0.06223351287902788,-0.6109725335413361,-0.05262396735019031,0.5686445989893065,-0.07770845688964034,0.02878134860145619,-0.02022557806800638,0.4178399238922927],[1,2,-0.6238989114862492,-0.01406913699812154]],"error_threshold":0.001,"learning_rate":0.5,"training_iterations":1000,"weights":[1,2,[2,27,10,0.04005715881262114,0.2483493459233301,-0.0009658036615660776,-1,-0.1127499412916281,0.3269154083312777,-0.0241469672368604,0.01093059230292029,0.07388324404899518,-0.09171795119735474,-0.6155656962006955,0.2703011747363309,0.8355746404768771,-0.6277500321112059,0.1538173555760944,0.4534436059413034,1,0.03550775349272008,0.07245459011866368,1,-0.4184078785977213,0.3306525550561411,0.4077121414093608,0.7970800210414563,1,-0.6436718606144607,0.1735121759744756,0.5011006937934535,0.4965703287008628,-0.5805728518116767,0.03146493323747587,-0.3886395444959572,-0.8261603088220859,-0.02457470602794826,-0.4446661938865435,0.545131689155212,1,-0.1698490038515681,0.0009597829878352222,-0.5026432425657945,0.01582386309470195,0.2095146172010629,-0.03188220123119639,-0.9265570037205714,-0.381618732233954,0.02972625271657718,0.05646283405870057,0.01321885885388839,-0.5214013764385727,-0.1995973451765674,0.2805364149259794,-0.3511430620278337,0.1393275888814914,-2.822202103826574e-05,0.05008462286975214,-0.2802462573414025,-0.01392898917160041,0.4648288786298145,0.2272649487424255,0.0007321812453469906,-0.3270412163364517,0.7275893394965844,0.180570357141672,0.1280999237547241,-0.2070911915974399,-0.2706381032715241,-0.01114608155328397,-0.0005213709598727888,0.4186311037743526,-0.2425553907418559,-0.2958466846871055,-0.02198926444796588,1,0.06974506261109198,0.9152335060301398,0.2259419983413859,0.3816010315633721,0.5094559268010941,-0.01501690621639537,-0.7031630366134185,0.1000152202154078,0.0009743849943640526,-0.1878031655505627,0.3949712377260352,-1,0.09604855501959646,-0.01292665264903224,-0.0003148646107060134,-0.1072240790038885,-0.007739876506198546,-0.07317603646447562,-0.1744160295212953,-0.01006214675980135,-0.02375272114393348,-0.6153650558103151,0.01665421797414704,-0.01258143551925721,0.9190651803640717,-0.02372473013780762,-1,0.001115190102329103,0.02001396595586463,-0.0292764702430246,0.09438576425468095,0.02057770814546487,1,0.09146576433992394,-1,0.02324492441328636,-0.02435172534118425,-0.05603783399815408,-0.3817023774469734,1,-1,0.06069565311568827,0.05982252988848653,0.003000577597367065,0.6574007537314157,0.02914200509954325,0.0002000734495844438,-0.01177801024555587,0.1153047030299977,0.05052632831382747,0.03134812286138054,-0.7340250614688795,0.6418350232216107,0.1090536752764486,0.7130998448260484,-0.07224743587738511,0.05489295957633249,0.7498355488345437,-0.791555370300387,0.4142626572596282,0.0575887768392876,0.2139626523706667,0.4164209190401506,-0.01318103895539057,0.007783028181863088,-0.12342949197359,-1,-0.7784950280999945,-0.1008232178166005,0.02517279452038683,0.4991093278738687,0.03533807177495132,1,-0.008470232224398699,-0.1235300038767868,-1,0.5360354342772164,-0.09661119744651923,-0.07836045384068303,-0.07233439418380974,1,0.3045939407401909,-0.03700723268732666,-0.4365525836186357,-0.1191716472983828,1,-1,-0.3097834713722467,0.01450174544472794,0.1513752899666446,-0.04651103370111966,-0.07761319782376754,-0.1743125605833384,0.0848175606366733,0.0398578928673048,-0.008804863135439151,-0.0340425746719784,-0.01402907768240736,1,-0.235491704306054,0.01175723384219518,0.8634816242938236,0.2523009767693693,-0.2682999565354983,1,1,0.2532474440279741,-5.873015918744257e-05,0.0002685379306553705,0.1943207708349968,0.0003344513145164824,0.7446349674830588,-0.2135968406716542,-1,-0.9351822201721413,0.2071401091925758,-0.0003996049549091658,-0.3535500047365005,0.009684595486198447,0.1825835584035674,-0.06208563619626576,-0.009075657908850685,-0.2688697198796889,0.1917759949887267,-1,-0.4468447839108457,-0.1561523907072631,-0.09632858659271404,-0.4154968725992526,0.006228665582656051,1,1,0.002104817596853007,0.007673725840675099,-0.2054234386926333,-0.04993312898809481,-0.4220795590303665,-0.2137728696940697,0.9739249445455312,-0.2322075652591239,1,0.01733958896101897,0.7959947114309384,0.3718994419205616,-0.003731962955448368,0.08005787906207709,1,-0.1128624831530301,1,-0.05367289241891897,0.0213000759975203,0.1344678500953917,-0.6140640057447874,-0.09532715451269835,-0.0001719867541280389,-0.9777672333401198,-0.4205058219306291,0.968933464216081,-0.4200610651130586,-0.05669526114056744,-0.419382709392796,-0.4205263994746862,-0.1809535018298723,-1,-0.0307726278331396,0.7068534614089169,0.01947237317923085,-0.6615650395171419,-1,1,0.4559646231200831,-0.0140714113168657,0.6572325135384957,0.2850132538947159,-0.1845165191200277,-0.02729891014474059,-0.1266782563861104,-0.5825500679522495,0.005307162487552326,-0.004186159518161977,-0.1539020565605637,-0.02458865015944711,1,-1,-0.04221104994731316,0.03529089001613719,-0.3647991173922228,-0.001181927854564486,-0.2490673799849786,0.05700021240378111,0.5568475483905164,-1,0.4077656585811038,0.7894994506769103,-0.1579257832688498,0.222158078161647,0.3039095728780677],[2,10,2,-0.26123216717975,-0.01017764635929338,-0.5624607734037388,-0.009254814263542039,0.08069281390362334,0.2407563148151736,-0.30601580895052,0.1481320767499595,0.04580074900867986,0.3088425755005416,-0.1339189977771787,-0.02657908470787449,0.2713499491507346,0.03669786629934994,0.7576495441554144,0.04663297332791223,0.1841148295213118,-1,0.9416793819218587,-0.6449619896266282]]}]
