{"Coords":[1,2,0,0],"Dir":3,"Fitness":993,"Food":0,"Name":[1,5,"MyAnt"],"biases":[1,2,[1,10,-0.4659330805861847,-1,0.2586457871694193,1,-0.9911401640457349,-8.571331229574047e-05,-1,0.4464469930170549,-0.4372487734485788,-0.000887674067952008],[1,2,0.215510591242358,-0.06421331384768]],"error_threshold":0.001,"learning_rate":0.5,"training_iterations":1000,"weights":[1,2,[2,27,10,0.3986289954241592,0.05260173266514514,-0.001680849895235972,0.08177756963061068,0.05729735301457847,-0.09116925738262358,-1,-0.340650132287334,0.07784901255316566,0.02987198323910233,-0.7357021393854317,0.00279976158589038,-1,-0.078563288374841,0.7180104347274635,0.3924795538695211,0.02349120284007648,0.003165919268990896,-0.001460950224890702,0.0006409079162430394,-0.610859547579533,0.09593048911448426,-0.3560497003425607,0.4872027981544153,0.2151120306967134,0.4919905687665072,0.0003352221804689583,0.06792335908729624,0.7816336168745928,0.02613004937501268,-0.000308944039729259,-0.3975409493247047,-0.3004590075748355,-0.3979042279343742,-0.04224054471442384,-0.4143731967224631,0.1371944061759614,-0.08910172530773661,0.5604374587745284,-0.02813178326511543,-0.3010953304712522,-0.00919072704213394,-0.006666318828360338,-0.3475032117790429,-0.3199148667823483,-0.005007352995868014,-0.9204670795753089,-0.3557698244533188,-0.04299055623148563,0.0006831833214715403,0.2064328188487526,0.773968894333156,-0.006187501341318772,-1,0.6449042518807155,-0.8046653870588361,0.0568879403652677,-0.04919105728875505,0.06614177743287965,-0.04408248822611698,0.4606724942212405,-0.5179516109800766,-0.002960121039949304,0.01072051696500893,-0.0176660888547961,0.2954884102564379,-0.4350719996256623,-0.3727568767846784,0.0568919609555748,0.1083195148308946,0.07784801359382969,0.6651634160621991,0.01754073079411968,0.2040424950284982,1,-0.05944118452441547,-1,0.003081858746116884,-1,0.07646672169253667,-0.2530130925044655,0.0829117160993976,0.002466826688398554,0.1757777887221947,2.091289925379727e-05,-0.05133430828843166,0.003701524360309094,0.3110540956273657,0.07136490548513015,0.02937664618387642,0.10995455606031,-0.07500303814609316,0.0001624236704459222,0.07072062056199656,0.08396282794647858,0.006356018444447394,-0.7692281379108014,0.1742874897441813,0.7791077696652263,-0.002982160307616008,0.3313407704838758,0.0001843631090360104,-0.34428745891672,1,-0.004798166743112535,-0.03385411336578877,-1,-0.9854684961003957,-0.6356962617470092,-0.6834105160301392,0.004864334578811554,1,0.02882940341403178,0.6303482135141815,-0.01090931595651397,0.2940456948912238,0.3221869248182299,0.492534791933483,-0.136683189214382,1,0.001266525657978361,-0.0242636284333535,0.01832744405523235,0.1509577116156626,0.003024898952506154,0.2753315076689751,0.2286127523567095,-0.4437871978620727,0.1067142882775265,0.1474934739789409,0.0121883290927557,-0.5165582536954889,0.4006809503486943,0.004275939683179887,-0.3450746011201116,0.08849384276945083,-0.04798524153748738,0.5090995988828425,-0.0796642649181695,0.6188914503455847,-0.09072708792106572,-0.1961453534279025,0.5393202006799309,0.9884912898668781,1,0.1243298426573799,0.7455718396310479,0.006606408277980085,0.002075137350327506,-0.3140240237238208,-1,-0.09909763239187988,-0.07282854554027123,0.1287359421674777,-1,1,-0.08106618166102086,0.0004004400262556267,0.1006906960904533,0.08844893875298609,-0.1503992652763916,-0.002536067303105077,-1,-0.2992411977333815,-0.05549706687545684,0.4948332786906706,-0.483737605494073,0.006936577541253901,0.3157683588661915,-0.6790917285861425,-0.08152486719475292,0.08114379289752821,0.09310975107529844,-0.003191487325540362,-0.6295252684870716,-0.2066386187852434,-0.1259835486835811,-0.2903063021134763,0.07957815772528568,-1,0.07524681329978151,-0.005201516447065302,0.1205742775450986,0.02741797828825476,-0.02752882021347204,-0.01634125552863026,0.02243788851113601,0.1227510728430602,-0.05324040643521034,-0.104888936917716,1,-1,0.3310572801257507,-0.01556566914396599,-0.05886544213741542,0.3359256284071866,-1,-0.3519869932505617,0.04596956070042017,-0.1936475547732625,0.01367493373896133,0.2498239021487633,-0.008038656675835051,1,-0.02394748326262864,1,-0.7037807901954111,-0.000214681284912366,-0.9984093083145951,-0.002066450945475211,-0.1233507285902286,4.027763389324979e-06,-0.02249829262840435,0.07375639873490369,0.4799602517699638,1,-0.07756333693512259,-0.007950328715047073,-0.3958442194476927,0.9179444344780471,1,-0.5603711439629184,-0.00231806438397297,-0.4366898011269998,0.3963533187979094,-0.2371522012852088,-0.2204356042749071,0.01137665747341611,0.8267560522449453,-1,0.0005359068865493504,-0.001151256882284883,-0.219895029734596,0.4126875229164844,0.3948342133269087,0.06077788302114114,-0.907194234883813,1,0.08777102357960014,0.0004935805817621182,-0.170947207486063,-0.419318119613585,-0.04446258869002001,0.0210220180790078,0.2314221209124129,-0.7216984175598319,0.8568516833345021,0.7622107608641004,0.007904808981561045,0.8403665101162086,0.1491133700111943,-0.07220117432310487,0.5708688707749578,0.00397927804487332,0.1278190348276999,1.562201900480386e-05,-0.002594676141237192,-0.3811654882481856,0.863260949713534,-0.6933951863489926,0.1846158843783609,0.8742578466954275,-0.5560545750737842,1,0.07677784423299834,-0.008999667247006285,-0.05962223038890525,-0.1736787912807566,-0.02383007336837723,-0.07572400450214849],[2,10,2,-1,1,0.2684075983064887,0.6706585508356531,0.0001533421293577339,0.08906899196113889,0.0008164457147382425,-0.2966488392662513,0.2662092140429333,-0.4319824342277529,0.1792524803973006,-0.7453516106167208,0.4157062895367618,0.1029483027971969,-0.002163095650372239,0.006910787128419612,0.08570907928719687,-0.3758295476998225,-0.2185327762761811,0.1750117167136541]]}
